{"learner":{"attributes":{},"feature_names":["is_home","saves_rolling_3","saves_rolling_std_3","saves_rolling_5","saves_rolling_std_5","saves_rolling_10","saves_rolling_std_10","shots_against_rolling_3","shots_against_rolling_std_3","shots_against_rolling_5","shots_against_rolling_std_5","shots_against_rolling_10","shots_against_rolling_std_10","goals_against_rolling_3","goals_against_rolling_std_3","goals_against_rolling_5","goals_against_rolling_std_5","goals_against_rolling_10","goals_against_rolling_std_10","save_percentage_rolling_3","save_percentage_rolling_std_3","save_percentage_rolling_5","save_percentage_rolling_std_5","save_percentage_rolling_10","save_percentage_rolling_std_10","even_strength_saves_rolling_3","even_strength_saves_rolling_std_3","even_strength_saves_rolling_5","even_strength_saves_rolling_std_5","even_strength_saves_rolling_10","even_strength_saves_rolling_std_10","even_strength_shots_against_rolling_3","even_strength_shots_against_rolling_std_3","even_strength_shots_against_rolling_5","even_strength_shots_against_rolling_std_5","even_strength_shots_against_rolling_10","even_strength_shots_against_rolling_std_10","even_strength_goals_against_rolling_3","even_strength_goals_against_rolling_std_3","even_strength_goals_against_rolling_5","even_strength_goals_against_rolling_std_5","even_strength_goals_against_rolling_10","even_strength_goals_against_rolling_std_10","power_play_saves_rolling_3","power_play_saves_rolling_std_3","power_play_saves_rolling_5","power_play_saves_rolling_std_5","power_play_saves_rolling_10","power_play_saves_rolling_std_10","power_play_shots_against_rolling_3","power_play_shots_against_rolling_std_3","power_play_shots_against_rolling_5","power_play_shots_against_rolling_std_5","power_play_shots_against_rolling_10","power_play_shots_against_rolling_std_10","power_play_goals_against_rolling_3","power_play_goals_against_rolling_std_3","power_play_goals_against_rolling_5","power_play_goals_against_rolling_std_5","power_play_goals_against_rolling_10","power_play_goals_against_rolling_std_10","short_handed_saves_rolling_3","short_handed_saves_rolling_std_3","short_handed_saves_rolling_5","short_handed_saves_rolling_std_5","short_handed_saves_rolling_10","short_handed_saves_rolling_std_10","short_handed_shots_against_rolling_3","short_handed_shots_against_rolling_std_3","short_handed_shots_against_rolling_5","short_handed_shots_against_rolling_std_5","short_handed_shots_against_rolling_10","short_handed_shots_against_rolling_std_10","short_handed_goals_against_rolling_3","short_handed_goals_against_rolling_std_3","short_handed_goals_against_rolling_5","short_handed_goals_against_rolling_std_5","short_handed_goals_against_rolling_10","short_handed_goals_against_rolling_std_10","opp_goals_rolling_5","opp_shots_rolling_5","opp_goals_rolling_10","opp_shots_rolling_10","team_goals_against_rolling_5","team_shots_against_rolling_5","team_goals_against_rolling_10","team_shots_against_rolling_10","goalie_days_rest","goalie_is_back_to_back","save_efficiency_3","save_efficiency_5","save_efficiency_10","es_saves_proportion_5","es_saves_proportion_10","opp_vs_team_shots_5","opp_vs_team_shots_10","saves_cv_5","saves_cv_10","saves_momentum","shots_against_momentum","goals_against_momentum","save_pct_momentum","expected_workload_diff","rest_x_performance","ctx_team_s2d_games_prior","ctx_team_s2d_shots_against_avg","ctx_team_s2d_shots_against_std","ctx_team_s2d_shots_against_ema5","ctx_opponent_s2d_games_prior","ctx_opponent_s2d_shots_for_avg","ctx_opponent_s2d_shots_for_std","ctx_opponent_s2d_shots_for_ema5","ctx_goalie_s2d_starts_prior","ctx_goalie_s2d_shots_against_avg","ctx_goalie_s2d_shots_against_std","ctx_goalie_s2d_shots_against_ema5","ctx_goalie_shots_against_roll5_rel_s2d","ctx_goalie_shots_against_roll5_z_s2d","ctx_team_shots_against_roll5_rel_s2d","ctx_team_shots_against_roll5_z_s2d","ctx_opponent_shots_for_roll5_rel_s2d","ctx_opponent_shots_for_roll5_z_s2d","ctx_goalie_shots_against_roll10_rel_s2d","ctx_goalie_shots_against_roll10_z_s2d","ctx_team_shots_against_roll10_rel_s2d","ctx_team_shots_against_roll10_z_s2d","ctx_opponent_shots_for_roll10_rel_s2d","ctx_opponent_shots_for_roll10_z_s2d","ctx_team_days_since_prev_game","ctx_team_is_back_to_back","ctx_team_games_last_4_days","ctx_team_is_3_in_4","ctx_opponent_days_since_prev_game","ctx_opponent_is_back_to_back","ctx_opponent_games_last_4_days","ctx_opponent_is_3_in_4"],"feature_types":["float","float","float","float","float","float","float","float","float","float","float","float","float","float","float","float","float","float","float","float","float","float","float","float","float","float","float","float","float","float","float","float","float","float","float","float","float","float","float","float","float","float","float","float","float","float","float","float","float","float","float","float","float","float","float","float","float","float","float","float","float","float","float","float","float","float","float","float","float","float","float","float","float","float","float","float","float","float","float","float","float","float","float","float","float","float","float","float","float","float","float","float","float","float","float","float","float","float","float","float","float","float","float","float","float","float","float","float","float","float","float","float","float","float","float","float","float","float","float","float","float","float","float","float","float","float","float","float","float","float","float","float","float","float","float","float"],"gradient_booster":{"model":{"cats":{"enc":[],"feature_segments":[],"sorted_idx":[]},"gbtree_model_param":{"num_parallel_tree":"1","num_trees":"400"},"iteration_indptr":[0,1,2,3,4,5,6,7,8,9,10,11,12,13,14,15,16,17,18,19,20,21,22,23,24,25,26,27,28,29,30,31,32,33,34,35,36,37,38,39,40,41,42,43,44,45,46,47,48,49,50,51,52,53,54,55,56,57,58,59,60,61,62,63,64,65,66,67,68,69,70,71,72,73,74,75,76,77,78,79,80,81,82,83,84,85,86,87,88,89,90,91,92,93,94,95,96,97,98,99,100,101,102,103,104,105,106,107,108,109,110,111,112,113,114,115,116,117,118,119,120,121,122,123,124,125,126,127,128,129,130,131,132,133,134,135,136,137,138,139,140,141,142,143,144,145,146,147,148,149,150,151,152,153,154,155,156,157,158,159,160,161,162,163,164,165,166,167,168,169,170,171,172,173,174,175,176,177,178,179,180,181,182,183,184,185,186,187,188,189,190,191,192,193,194,195,196,197,198,199,200,201,202,203,204,205,206,207,208,209,210,211,212,213,214,215,216,217,218,219,220,221,222,223,224,225,226,227,228,229,230,231,232,233,234,235,236,237,238,239,240,241,242,243,244,245,246,247,248,249,250,251,252,253,254,255,256,257,258,259,260,261,262,263,264,265,266,267,268,269,270,271,272,273,274,275,276,277,278,279,280,281,282,283,284,285,286,287,288,289,290,291,292,293,294,295,296,297,298,299,300,301,302,303,304,305,306,307,308,309,310,311,312,313,314,315,316,317,318,319,320,321,322,323,324,325,326,327,328,329,330,331,332,333,334,335,336,337,338,339,340,341,342,343,344,345,346,347,348,349,350,351,352,353,354,355,356,357,358,359,360,361,362,363,364,365,366,367,368,369,370,371,372,373,374,375,376,377,378,379,380,381,382,383,384,385,386,387,388,389,390,391,392,393,394,395,396,397,398,399,400],"tree_info":[0,0,0,0,0,0,0,0,0,0,0,0,0,0,0,0,0,0,0,0,0,0,0,0,0,0,0,0,0,0,0,0,0,0,0,0,0,0,0,0,0,0,0,0,0,0,0,0,0,0,0,0,0,0,0,0,0,0,0,0,0,0,0,0,0,0,0,0,0,0,0,0,0,0,0,0,0,0,0,0,0,0,0,0,0,0,0,0,0,0,0,0,0,0,0,0,0,0,0,0,0,0,0,0,0,0,0,0,0,0,0,0,0,0,0,0,0,0,0,0,0,0,0,0,0,0,0,0,0,0,0,0,0,0,0,0,0,0,0,0,0,0,0,0,0,0,0,0,0,0,0,0,0,0,0,0,0,0,0,0,0,0,0,0,0,0,0,0,0,0,0,0,0,0,0,0,0,0,0,0,0,0,0,0,0,0,0,0,0,0,0,0,0,0,0,0,0,0,0,0,0,0,0,0,0,0,0,0,0,0,0,0,0,0,0,0,0,0,0,0,0,0,0,0,0,0,0,0,0,0,0,0,0,0,0,0,0,0,0,0,0,0,0,0,0,0,0,0,0,0,0,0,0,0,0,0,0,0,0,0,0,0,0,0,0,0,0,0,0,0,0,0,0,0,0,0,0,0,0,0,0,0,0,0,0,0,0,0,0,0,0,0,0,0,0,0,0,0,0,0,0,0,0,0,0,0,0,0,0,0,0,0,0,0,0,0,0,0,0,0,0,0,0,0,0,0,0,0,0,0,0,0,0,0,0,0,0,0,0,0,0,0,0,0,0,0,0,0,0,0,0,0,0,0,0,0,0,0,0,0,0,0,0,0,0,0,0,0,0,0,0,0,0,0,0,0,0,0,0,0,0,0,0,0,0,0,0,0,0,0,0,0,0,0,0,0,0,0,0,0],"trees":[{"base_weights":[4.9832882E-3,1.2267372E-2,-1.6348319E-1,3.51297E-3,-3.83468E-4,-4.2084544E-3,-2.4762522E-2],"categories":[],"categories_nodes":[],"categories_segments":[],"categories_sizes":[],"default_left":[0,0,0,0,0,0,0],"id":0,"left_children":[1,3,5,-1,-1,-1,-1],"loss_changes":[1.9835043E1,1.7912655E1,1.7420002E1,0E0,0E0,0E0,0E0],"parents":[2147483647,0,0,1,1,2,2],"right_children":[2,4,6,-1,-1,-1,-1],"split_conditions":[2.1679482E0,2.6666667E0,2.6416667E0,3.51297E-3,-3.83468E-4,-4.2084544E-3,-2.4762522E-2],"split_indices":[40,85,120,0,0,0,0],"split_type":[0,0,0,0,0,0,0],"sum_hessian":[1.6150679E4,1.5485748E4,6.649304E2,3.9585332E3,1.1527215E4,5.416977E2,1.2323272E2],"tree_param":{"num_deleted":"0","num_feature":"136","num_nodes":"7","size_leaf_vector":"1"}},{"base_weights":[-1.6437033E-4,4.303328E-2,-2.974521E-2,3.2526117E-3,-2.0402388E-3,-1.9068914E-3,9.284649E-3],"categories":[],"categories_nodes":[],"categories_segments":[],"categories_sizes":[],"default_left":[0,1,0,0,0,0,0],"id":1,"left_children":[1,3,5,-1,-1,-1,-1],"loss_changes":[2.0848043E1,1.2254938E1,1.75448E1,0E0,0E0,0E0,0E0],"parents":[2147483647,0,0,1,1,2,2],"right_children":[2,4,6,-1,-1,-1,-1],"split_conditions":[3E0,7.6272364E0,7.3E0,3.2526117E-3,-2.0402388E-3,-1.9068914E-3,9.284649E-3],"split_indices":[83,106,95,0,0,0,0],"split_type":[0,0,0,0,0,0,0],"sum_hessian":[1.6305277E4,6.6263613E3,9.678917E3,5.248922E3,1.3774392E3,9.319963E3,3.589538E2],"tree_param":{"num_deleted":"0","num_feature":"136","num_nodes":"7","size_leaf_vector":"1"}},{"base_weights":[4.626213E-3,1.0265032E-1,-1.018223E-2,6.931675E-3,-6.2324344E-3,-8.0626685E-4,7.6569854E-3],"categories":[],"categories_nodes":[],"categories_segments":[],"categories_sizes":[],"default_left":[0,0,0,0,0,0,0],"id":2,"left_children":[1,3,5,-1,-1,-1,-1],"loss_changes":[2.3540258E1,1.7493916E1,1.3688667E1,0E0,0E0,0E0,0E0],"parents":[2147483647,0,0,1,1,2,2],"right_children":[2,4,6,-1,-1,-1,-1],"split_conditions":[2.4E0,1.7320508E0,3.63E1,6.931675E-3,-6.2324344E-3,-8.0626685E-4,7.6569854E-3],"split_indices":[85,38,82,0,0,0,0],"split_type":[0,0,0,0,0,0,0],"sum_hessian":[1.6208341E4,2.123333E3,1.4085008E4,1.8348176E3,2.8851535E2,1.3594813E4,4.901941E2],"tree_param":{"num_deleted":"0","num_feature":"136","num_nodes":"7","size_leaf_vector":"1"}},{"base_weights":[-2.1227452E-3,2.5825007E-2,-4.2766556E-2,-1.6921325E-2,1.5448368E-3,-3.134861E-3,4.1697393E-3],"categories":[],"categories_nodes":[],"categories_segments":[],"categories_sizes":[],"default_left":[0,0,0,0,0,0,0],"id":3,"left_children":[1,3,5,-1,-1,-1,-1],"loss_changes":[1.843649E1,1.7819881E1,1.6654709E1,0E0,0E0,0E0,0E0],"parents":[2147483647,0,0,1,1,2,2],"right_children":[2,4,6,-1,-1,-1,-1],"split_conditions":[3.3333333E0,-4.4169016E0,3.8658044E0,-1.6921325E-2,1.5448368E-3,-3.134861E-3,4.1697393E-3],"split_indices":[83,126,48,0,0,0,0],"split_type":[0,0,0,0,0,0,0],"sum_hessian":[1.6220826E4,9.612702E3,6.608124E3,1.2749335E2,9.485209E3,5.70878E3,8.9934406E2],"tree_param":{"num_deleted":"0","num_feature":"136","num_nodes":"7","size_leaf_vector":"1"}},{"base_weights":[-3.4592757E-3,5.910562E-2,-1.6787665E-2,-7.5554335E-4,5.8012754E-3,-1.8631987E-4,-3.8643752E-3],"categories":[],"categories_nodes":[],"categories_segments":[],"categories_sizes":[],"default_left":[0,1,1,0,0,0,0],"id":4,"left_children":[1,3,5,-1,-1,-1,-1],"loss_changes":[1.3546875E1,1.2061316E1,1.058049E1,0E0,0E0,0E0,0E0],"parents":[2147483647,0,0,1,1,2,2],"right_children":[2,4,6,-1,-1,-1,-1],"split_conditions":[2.2857144E0,2.7333334E1,4.4472376E-1,-7.5554335E-4,5.8012754E-3,-1.8631987E-4,-3.8643752E-3],"split_indices":[17,113,119,0,0,0,0],"split_type":[0,0,0,0,0,0,0],"sum_hessian":[1.6234463E4,2.848083E3,1.338638E4,1.2378076E3,1.6102753E3,1.1013904E4,2.3724763E3],"tree_param":{"num_deleted":"0","num_feature":"136","num_nodes":"7","size_leaf_vector":"1"}},{"base_weights":[1.0510382E-3,-2.7207697E-2,3.0725512E-3,1.8618573E-3,-1.1978252E-3],"categories":[],"categories_nodes":[],"categories_segments":[],"categories_sizes":[],"default_left":[0,0,1,0,0],"id":5,"left_children":[1,-1,3,-1,-1],"loss_changes":[1.7969168E1,0E0,1.5002076E1,0E0,0E0],"parents":[2147483647,0,0,2,2],"right_children":[2,-1,4,-1,-1],"split_conditions":[-5.8E0,-2.7207697E-2,6.8080254E0,1.8618573E-3,-1.1978252E-3],"split_indices":[126,0,106,0,0],"split_type":[0,0,0,0,0],"sum_hessian":[1.6291317E4,5.522841E1,1.6236089E4,7.170598E3,9.06549E3],"tree_param":{"num_deleted":"0","num_feature":"136","num_nodes":"5","size_leaf_vector":"1"}},{"base_weights":[2.204019E-3,9.514852E-2,-1.1410223E-2,6.783177E-3,-1.0620507E-3,4.1079798E-4,-2.5555126E-3],"categories":[],"categories_nodes":[],"categories_segments":[],"categories_sizes":[],"default_left":[0,0,0,0,0,0,0],"id":6,"left_children":[1,3,5,-1,-1,-1,-1],"loss_changes":[2.0501375E1,9.775484E0,1.1013672E1,0E0,0E0,0E0,0E0],"parents":[2147483647,0,0,1,1,2,2],"right_children":[2,4,6,-1,-1,-1,-1],"split_conditions":[2.3333333E0,6.519202E0,5.4E1,6.783177E-3,-1.0620507E-3,4.1079798E-4,-2.5555126E-3],"split_indices":[85,28,104,0,0,0,0],"split_type":[0,0,0,0,0,0,0],"sum_hessian":[1.6192607E4,2.064987E3,1.412762E4,1.5311632E3,5.3382367E2,9.456602E3,4.6710186E3],"tree_param":{"num_deleted":"0","num_feature":"136","num_nodes":"7","size_leaf_vector":"1"}},{"base_weights":[2.5434382E-3,-3.7263878E-2,2.501267E-2,2.671578E-3,-2.9731009E-3,-3.976318E-4,2.867977E-3],"categories":[],"categories_nodes":[],"categories_segments":[],"categories_sizes":[],"default_left":[0,0,0,0,0,0,0],"id":7,"left_children":[1,3,5,-1,-1,-1,-1],"loss_changes":[1.4598199E1,1.1871482E1,1.1126299E1,0E0,0E0,0E0,0E0],"parents":[2147483647,0,0,1,1,2,2],"right_children":[2,4,6,-1,-1,-1,-1],"split_conditions":[-1.4E0,7.94964E-1,2.12E1,2.671578E-3,-2.9731009E-3,-3.976318E-4,2.867977E-3],"split_indices":[95,93,29,0,0,0,0],"split_type":[0,0,0,0,0,0,0],"sum_hessian":[1.6310843E4,5.883726E3,1.0427116E4,1.1555273E3,4.7281987E3,5.1660586E3,5.261058E3],"tree_param":{"num_deleted":"0","num_feature":"136","num_nodes":"7","size_leaf_vector":"1"}},{"base_weights":[-2.201012E-3,-2.638405E-1,2.0760112E-3,-4.396668E-3,-2.8797511E-2,2.3845062E-3,-1.0870249E-3],"categories":[],"categories_nodes":[],"categories_segments":[],"categories_sizes":[],"default_left":[0,0,0,0,0,0,0],"id":8,"left_children":[1,3,5,-1,-1,-1,-1],"loss_changes":[1.8214066E1,1.4119812E1,1.740588E1,0E0,0E0,0E0,0E0],"parents":[2147483647,0,0,1,1,2,2],"right_children":[2,4,6,-1,-1,-1,-1],"split_conditions":[-4.4169016E0,-5.225188E-1,2.8333333E0,-4.396668E-3,-2.8797511E-2,2.3845062E-3,-1.0870249E-3],"split_indices":[126,121,85,0,0,0,0],"split_type":[0,0,0,0,0,0,0],"sum_hessian":[1.626909E4,2.5679285E2,1.6012297E4,1.6832976E2,8.846309E1,5.490915E3,1.0521382E4],"tree_param":{"num_deleted":"0","num_feature":"136","num_nodes":"7","size_leaf_vector":"1"}},{"base_weights":[1.5886496E-3,-2.5180924E-1,5.443143E-3,2.8394263E-3,-2.2771968E-2,2.3864235E-3,-8.270139E-4],"categories":[],"categories_nodes":[],"categories_segments":[],"categories_sizes":[],"default_left":[0,0,0,0,0,0,0],"id":9,"left_children":[1,3,5,-1,-1,-1,-1],"loss_changes":[1.5861064E1,1.5419263E1,1.4871371E1,0E0,0E0,0E0,0E0],"parents":[2147483647,0,0,1,1,2,2],"right_children":[2,4,6,-1,-1,-1,-1],"split_conditions":[-4.4169016E0,-8.8794065E-1,2.8333333E0,2.8394263E-3,-2.2771968E-2,2.3864235E-3,-8.270139E-4],"split_indices":[126,121,85,0,0,0,0],"split_type":[0,0,0,0,0,0,0],"sum_hessian":[1.6227084E4,2.3831624E2,1.5988768E4,9.617316E1,1.4214308E2,5.4670283E3,1.0521739E4],"tree_param":{"num_deleted":"0","num_feature":"136","num_nodes":"7","size_leaf_vector":"1"}},{"base_weights":[-2.8229838E-3,-1.1319879E-2,9.192099E-2,-3.6720287E-3,1.2194018E-4,5.343204E-3,-1.5319002E-2],"categories":[],"categories_nodes":[],"categories_segments":[],"categories_sizes":[],"default_left":[0,0,1,0,0,0,0],"id":10,"left_children":[1,3,5,-1,-1,-1,-1],"loss_changes":[1.2971509E1,1.26380205E1,8.056744E0,0E0,0E0,0E0,0E0],"parents":[2147483647,0,0,1,1,2,2],"right_children":[2,4,6,-1,-1,-1,-1],"split_conditions":[9.302326E-1,-1.7917808E0,7.52018E-1,-3.6720287E-3,1.2194018E-4,5.343204E-3,-1.5319002E-2],"split_indices":[91,118,121,0,0,0,0],"split_type":[0,0,0,0,0,0,0],"sum_hessian":[1.6101619E4,1.4780469E4,1.3211499E3,2.6761077E3,1.2104361E4,1.2769027E3,4.424713E1],"tree_param":{"num_deleted":"0","num_feature":"136","num_nodes":"7","size_leaf_vector":"1"}},{"base_weights":[-6.337674E-4,-4.155951E-2,2.3012409E-2,2.6235292E-3,-3.7310347E-3,-4.2094677E-3,1.6741821E-3],"categories":[],"categories_nodes":[],"categories_segments":[],"categories_sizes":[],"default_left":[0,0,0,0,0,0,0],"id":11,"left_children":[1,3,5,-1,-1,-1,-1],"loss_changes":[1.5623578E1,1.8398647E1,1.1500374E1,0E0,0E0,0E0,0E0],"parents":[2147483647,0,0,1,1,2,2],"right_children":[2,4,6,-1,-1,-1,-1],"split_conditions":[-1.4E0,2.6E0,4.363485E0,2.6235292E-3,-3.7310347E-3,-4.2094677E-3,1.6741821E-3],"split_indices":[95,81,114,0,0,0,0],"split_type":[0,0,0,0,0,0,0],"sum_hessian":[1.61345E4,5.9070522E3,1.0227448E4,1.535881E3,4.371171E3,9.069662E2,9.320482E3],"tree_param":{"num_deleted":"0","num_feature":"136","num_nodes":"7","size_leaf_vector":"1"}},{"base_weights":[-2.0427187E-3,-2.5835728E-2,-2.8283792E-4,-1.218973E-3,1.5891412E-3],"categories":[],"categories_nodes":[],"categories_segments":[],"categories_sizes":[],"default_left":[0,0,0,0,0],"id":12,"left_children":[1,-1,3,-1,-1],"loss_changes":[1.4755419E1,0E0,1.25528145E1,0E0,0E0],"parents":[2147483647,0,0,2,2],"right_children":[2,-1,4,-1,-1],"split_conditions":[-5.8E0,-2.5835728E-2,3.0894737E1,-1.218973E-3,1.5891412E-3],"split_indices":[126,0,109,0,0],"split_type":[0,0,0,0,0],"sum_hessian":[1.62864375E4,5.0514736E1,1.6235923E4,9.270528E3,6.965394E3],"tree_param":{"num_deleted":"0","num_feature":"136","num_nodes":"5","size_leaf_vector":"1"}},{"base_weights":[4.2658954E-4,-6.9402587E-3,1.4207813E-1,-1.1280058E-5,-5.0822436E-3,4.063432E-3,1.5951775E-2],"categories":[],"categories_nodes":[],"categories_segments":[],"categories_sizes":[],"default_left":[0,0,0,0,0,0,0],"id":13,"left_children":[1,3,5,-1,-1,-1,-1],"loss_changes":[1.6980755E1,9.836327E0,8.526722E0,0E0,0E0,0E0,0E0],"parents":[2147483647,0,0,1,1,2,2],"right_children":[2,4,6,-1,-1,-1,-1],"split_conditions":[7.1E0,9.054054E-1,2.8714285E1,-1.1280058E-5,-5.0822436E-3,4.063432E-3,1.5951775E-2],"split_indices":[95,92,11,0,0,0,0],"split_type":[0,0,0,0,0,0,0],"sum_hessian":[1.6262761E4,1.5463317E4,7.994431E2,1.4444219E4,1.01909863E3,6.004137E2,1.9902945E2],"tree_param":{"num_deleted":"0","num_feature":"136","num_nodes":"7","size_leaf_vector":"1"}},{"base_weights":[1.6041575E-3,8.92305E-2,-1.0823709E-2,1.1576457E-2,2.3233062E-3,-2.3664154E-2,-4.377189E-4],"categories":[],"categories_nodes":[],"categories_segments":[],"categories_sizes":[],"default_left":[0,0,0,0,0,0,0],"id":14,"left_children":[1,3,5,-1,-1,-1,-1],"loss_changes":[1.7844774E1,1.2331945E1,1.371338E1,0E0,0E0,0E0,0E0],"parents":[2147483647,0,0,1,1,2,2],"right_children":[2,4,6,-1,-1,-1,-1],"split_conditions":[2.2E0,1.0749677E0,-5.8E0,1.1576457E-2,2.3233062E-3,-2.3664154E-2,-4.377189E-4],"split_indices":[83,18,126,0,0,0,0],"split_type":[0,0,0,0,0,0,0],"sum_hessian":[1.6376824E4,2.030349E3,1.4346476E4,4.6407324E2,1.5662758E3,5.8837135E1,1.4287638E4],"tree_param":{"num_deleted":"0","num_feature":"136","num_nodes":"7","size_leaf_vector":"1"}},{"base_weights":[8.074006E-3,9.923724E-2,-1.3838718E-3,5.932325E-3,-1.0627202E-2,7.539435E-4,-3.145147E-3],"categories":[],"categories_nodes":[],"categories_segments":[],"categories_sizes":[],"default_left":[0,0,1,0,0,0,0],"id":15,"left_children":[1,3,5,-1,-1,-1,-1],"loss_changes":[1.3890735E1,9.289844E0,1.4791725E1,0E0,0E0,0E0,0E0],"parents":[2147483647,0,0,1,1,2,2],"right_children":[2,4,6,-1,-1,-1,-1],"split_conditions":[-3.8E0,3.9749215E0,7.958112E0,5.932325E-3,-1.0627202E-2,7.539435E-4,-3.145147E-3],"split_indices":[116,46,106,0,0,0,0],"split_type":[0,0,0,0,0,0,0],"sum_hessian":[1.6104808E4,1.5093096E3,1.4595498E4,1.423773E3,8.553655E1,1.151722E4,3.0782783E3],"tree_param":{"num_deleted":"0","num_feature":"136","num_nodes":"7","size_leaf_vector":"1"}},{"base_weights":[-1.9495178E-3,5.156531E-2,-1.9790241E-2,3.897065E-3,-5.577557E-3,3.161457E-6,-3.0463093E-3],"categories":[],"categories_nodes":[],"categories_segments":[],"categories_sizes":[],"default_left":[0,1,0,0,0,0,0],"id":16,"left_children":[1,3,5,-1,-1,-1,-1],"loss_changes":[1.5482402E1,1.748756E1,9.932137E0,0E0,0E0,0E0,0E0],"parents":[2147483647,0,0,1,1,2,2],"right_children":[2,4,6,-1,-1,-1,-1],"split_conditions":[2.6E0,7.83289E0,5.4E1,3.897065E-3,-5.577557E-3,3.161457E-6,-3.0463093E-3],"split_indices":[83,106,104,0,0,0,0],"split_type":[0,0,0,0,0,0,0],"sum_hessian":[1.6205954E4,4.049542E3,1.2156412E4,3.4881223E3,5.614197E2,8.202585E3,3.9538271E3],"tree_param":{"num_deleted":"0","num_feature":"136","num_nodes":"7","size_leaf_vector":"1"}},{"base_weights":[-3.3475587E-3,-7.012654E-2,9.001077E-3,-1.6301956E-3,-1.1557594E-2,-5.885334E-4,2.3239611E-3],"categories":[],"categories_nodes":[],"categories_segments":[],"categories_sizes":[],"default_left":[0,0,0,0,0,0,0],"id":17,"left_children":[1,3,5,-1,-1,-1,-1],"loss_changes":[1.3264294E1,1.5129287E1,1.0571557E1,0E0,0E0,0E0,0E0],"parents":[2147483647,0,0,1,1,2,2],"right_children":[2,4,6,-1,-1,-1,-1],"split_conditions":[-2E0,3.11E1,7.2111025E0,-1.6301956E-3,-1.1557594E-2,-5.885334E-4,2.3239611E-3],"split_indices":[118,86,8,0,0,0,0],"split_type":[0,0,0,0,0,0,0],"sum_hessian":[1.6076331E4,2.5052173E3,1.3571114E4,2.0366443E3,4.6857288E2,8.7339E3,4.837214E3],"tree_param":{"num_deleted":"0","num_feature":"136","num_nodes":"7","size_leaf_vector":"1"}},{"base_weights":[-3.7770038E-3,8.178871E-2,-1.5587928E-2,8.141781E-3,1.2284481E-3,-3.441689E-4,-6.331764E-3],"categories":[],"categories_nodes":[],"categories_segments":[],"categories_sizes":[],"default_left":[0,0,0,0,0,0,0],"id":18,"left_children":[1,3,5,-1,-1,-1,-1],"loss_changes":[1.6505478E1,9.166783E0,1.3866499E1,0E0,0E0,0E0,0E0],"parents":[2147483647,0,0,1,1,2,2],"right_children":[2,4,6,-1,-1,-1,-1],"split_conditions":[2.2E0,1.3165612E0,2.04939E0,8.141781E-3,1.2284481E-3,-3.441689E-4,-6.331764E-3],"split_indices":[83,18,40,0,0,0,0],"split_type":[0,0,0,0,0,0,0],"sum_hessian":[1.6320882E4,1.9759852E3,1.4344896E4,8.13915E2,1.1620702E3,1.3307116E4,1.0377808E3],"tree_param":{"num_deleted":"0","num_feature":"136","num_nodes":"7","size_leaf_vector":"1"}},{"base_weights":[-4.6336134E-3,-4.081533E-2,1.6785335E-2,-8.192925E-3,-1.1853133E-3,-6.0829305E-4,2.7803443E-3],"categories":[],"categories_nodes":[],"categories_segments":[],"categories_sizes":[],"default_left":[0,0,0,0,0,0,0],"id":19,"left_children":[1,3,5,-1,-1,-1,-1],"loss_changes":[1.2558295E1,1.2665398E1,1.1444727E1,0E0,0E0,0E0,0E0],"parents":[2147483647,0,0,1,1,2,2],"right_children":[2,4,6,-1,-1,-1,-1],"split_conditions":[-1.4E0,-1.5620689E0,2.17E1,-8.192925E-3,-1.1853133E-3,-6.0829305E-4,2.7803443E-3],"split_indices":[95,118,29,0,0,0,0],"split_type":[0,0,0,0,0,0,0],"sum_hessian":[1.6195367E4,6.020603E3,1.0174765E4,7.29729E2,5.290874E3,5.83027E3,4.3444946E3],"tree_param":{"num_deleted":"0","num_feature":"136","num_nodes":"7","size_leaf_vector":"1"}},{"base_weights":[2.9869496E-3,6.757563E-2,-9.071378E-3,-9.673084E-3,4.1297753E-3,8.5278973E-4,-2.3293293E-3],"categories":[],"categories_nodes":[],"categories_segments":[],"categories_sizes":[],"default_left":[0,0,0,0,0,0,0],"id":20,"left_children":[1,3,5,-1,-1,-1,-1],"loss_changes":[1.2606048E1,1.0063592E1,1.3373964E1,0E0,0E0,0E0,0E0],"parents":[2147483647,0,0,1,1,2,2],"right_children":[2,4,6,-1,-1,-1,-1],"split_conditions":[-2.7714286E0,-3.2E0,3.3333333E0,-9.673084E-3,4.1297753E-3,8.5278973E-4,-2.3293293E-3],"split_indices":[116,102,83,0,0,0,0],"split_type":[0,0,0,0,0,0,0],"sum_hessian":[1.617691E4,2.5413762E3,1.3635534E4,1.3504062E2,2.4063357E3,8.039331E3,5.5962026E3],"tree_param":{"num_deleted":"0","num_feature":"136","num_nodes":"7","size_leaf_vector":"1"}},{"base_weights":[-6.829093E-3,-1.237755E-2,1.1142125E-1,3.7243273E-3,-1.0412758E-3,-1.5021552E-2,6.8648644E-3],"categories":[],"categories_nodes":[],"categories_segments":[],"categories_sizes":[],"default_left":[0,0,1,0,0,0,0],"id":21,"left_children":[1,3,5,-1,-1,-1,-1],"loss_changes":[1.063102E1,1.136109E1,7.945735E0,0E0,0E0,0E0,0E0],"parents":[2147483647,0,0,1,1,2,2],"right_children":[2,4,6,-1,-1,-1,-1],"split_conditions":[7.3E0,-3.8727272E0,-1.4743589E0,3.7243273E-3,-1.0412758E-3,-1.5021552E-2,6.8648644E-3],"split_indices":[95,116,126,0,0,0,0],"split_type":[0,0,0,0,0,0,0],"sum_hessian":[1.6187674E4,1.5466445E4,7.212286E2,1.3674012E3,1.4099044E4,3.9498837E1,6.8172974E2],"tree_param":{"num_deleted":"0","num_feature":"136","num_nodes":"7","size_leaf_vector":"1"}},{"base_weights":[3.7579893E-3,2.9703029E-2,-2.1493427E-2,-1.52889835E-2,1.7350905E-3,-5.5407193E-3,-3.4651806E-4],"categories":[],"categories_nodes":[],"categories_segments":[],"categories_sizes":[],"default_left":[0,0,0,0,0,0,0],"id":22,"left_children":[1,3,5,-1,-1,-1,-1],"loss_changes":[1.057132E1,1.3399105E1,1.06334915E1,0E0,0E0,0E0,0E0],"parents":[2147483647,0,0,1,1,2,2],"right_children":[2,4,6,-1,-1,-1,-1],"split_conditions":[3.2E0,-4.4169016E0,-1.9571428E0,-1.52889835E-2,1.7350905E-3,-5.5407193E-3,-3.4651806E-4],"split_indices":[83,126,118,0,0,0,0],"split_type":[0,0,0,0,0,0,0],"sum_hessian":[1.6125876E4,7.953265E3,8.1726113E3,1.1234895E2,7.840916E3,1.1410516E3,7.03156E3],"tree_param":{"num_deleted":"0","num_feature":"136","num_nodes":"7","size_leaf_vector":"1"}},{"base_weights":[-1.0938556E-3,-3.3998448E-1,4.886588E-4,-2.2486083E-3,-2.8301898E-2,8.454348E-3,-1.3776541E-4],"categories":[],"categories_nodes":[],"categories_segments":[],"categories_sizes":[],"default_left":[0,0,0,0,0,0,0],"id":23,"left_children":[1,3,5,-1,-1,-1,-1],"loss_changes":[8.7311535E0,4.9191055E0,8.867012E0,0E0,0E0,0E0,0E0],"parents":[2147483647,0,0,1,1,2,2],"right_children":[2,4,6,-1,-1,-1,-1],"split_conditions":[-5.8E0,5.2214812E-2,-9.182802E-1,-2.2486083E-3,-2.8301898E-2,8.454348E-3,-1.3776541E-4],"split_indices":[126,24,121,0,0,0,0],"split_type":[0,0,0,0,0,0,0],"sum_hessian":[1.6273826E4,7.067094E1,1.6203155E4,3.3259796E1,3.7411144E1,3.0105103E2,1.59021045E4],"tree_param":{"num_deleted":"0","num_feature":"136","num_nodes":"7","size_leaf_vector":"1"}},{"base_weights":[-1.0202936E-3,5.1295673E-3,-1.0661355E-1,-1.4448981E-3,1.2410193E-3,-9.637166E-3,2.6670329E-3],"categories":[],"categories_nodes":[],"categories_segments":[],"categories_sizes":[],"default_left":[1,0,0,0,0,0,0],"id":24,"left_children":[1,3,5,-1,-1,-1,-1],"loss_changes":[1.049873E1,1.0240459E1,1.2309632E1,0E0,0E0,0E0,0E0],"parents":[2147483647,0,0,1,1,2,2],"right_children":[2,4,6,-1,-1,-1,-1],"split_conditions":[4.0410516E-1,-1.4E0,6.5574384E0,-1.4448981E-3,1.2410193E-3,-9.637166E-3,2.6670329E-3],"split_indices":[123,95,2,0,0,0,0],"split_type":[0,0,0,0,0,0,0],"sum_hessian":[1.6158006E4,1.5273233E4,8.847719E2,5.597649E3,9.675585E3,5.7443414E2,3.1033777E2],"tree_param":{"num_deleted":"0","num_feature":"136","num_nodes":"7","size_leaf_vector":"1"}},{"base_weights":[-1.497065E-3,8.266951E-2,-8.72083E-3,-5.2872556E-3,7.7261277E-3,-2.3125904E-3,5.657522E-4],"categories":[],"categories_nodes":[],"categories_segments":[],"categories_sizes":[],"default_left":[0,0,0,0,0,0,0],"id":25,"left_children":[1,3,5,-1,-1,-1,-1],"loss_changes":[9.87924E0,1.7469566E1,1.1254639E1,0E0,0E0,0E0,0E0],"parents":[2147483647,0,0,1,1,2,2],"right_children":[2,4,6,-1,-1,-1,-1],"split_conditions":[2.2222223E0,1.7888544E0,-1.4E0,-5.2872556E-3,7.7261277E-3,-2.3125904E-3,5.657522E-4],"split_indices":[81,46,95,0,0,0,0],"split_type":[0,0,0,0,0,0,0],"sum_hessian":[1.6237833E4,1.2793591E3,1.4958474E4,3.5254623E2,9.268129E2,5.20395E3,9.754524E3],"tree_param":{"num_deleted":"0","num_feature":"136","num_nodes":"7","size_leaf_vector":"1"}},{"base_weights":[-9.6195523E-4,-1.8967088E-1,2.798009E-3,-2.2010196E-2,1.0095868E-3,9.490872E-3,-4.0387025E-5],"categories":[],"categories_nodes":[],"categories_segments":[],"categories_sizes":[],"default_left":[0,0,0,0,0,0,0],"id":26,"left_children":[1,3,5,-1,-1,-1,-1],"loss_changes":[1.14835825E1,1.6668003E1,1.0702398E1,0E0,0E0,0E0,0E0],"parents":[2147483647,0,0,1,1,2,2],"right_children":[2,4,6,-1,-1,-1,-1],"split_conditions":[-4.2E0,6.310485E0,-5.489474E0,-2.2010196E-2,1.0095868E-3,9.490872E-3,-4.0387025E-5],"split_indices":[126,6,120,0,0,0,0],"split_type":[0,0,0,0,0,0,0],"sum_hessian":[1.6175835E4,3.1117242E2,1.5864663E4,1.3934047E2,1.7183194E2,2.9520203E2,1.5569461E4],"tree_param":{"num_deleted":"0","num_feature":"136","num_nodes":"7","size_leaf_vector":"1"}},{"base_weights":[-3.7595336E-3,6.774132E-2,-1.13551095E-2,4.7223987E-3,-1.1271906E-2,8.1551196E-5,-3.3228241E-3],"categories":[],"categories_nodes":[],"categories_segments":[],"categories_sizes":[],"default_left":[0,0,0,0,0,0,0],"id":27,"left_children":[1,3,5,-1,-1,-1,-1],"loss_changes":[8.917158E0,1.2452329E1,1.0619678E1,0E0,0E0,0E0,0E0],"parents":[2147483647,0,0,1,1,2,2],"right_children":[2,4,6,-1,-1,-1,-1],"split_conditions":[-3.8E0,3.9370039E0,6.5E1,4.7223987E-3,-1.1271906E-2,8.1551196E-5,-3.3228241E-3],"split_indices":[116,46,108,0,0,0,0],"split_type":[0,0,0,0,0,0,0],"sum_hessian":[1.6407215E4,1.5717715E3,1.4835442E4,1.4436537E3,1.2811775E2,1.2009849E4,2.8255945E3],"tree_param":{"num_deleted":"0","num_feature":"136","num_nodes":"7","size_leaf_vector":"1"}},{"base_weights":[-2.8615532E-4,1.3612568E-1,-5.8405455E-3,-3.9154044E-3,9.924813E-3,3.1113455E-3,-6.4891943E-4],"categories":[],"categories_nodes":[],"categories_segments":[],"categories_sizes":[],"default_left":[0,0,0,0,0,0,0],"id":28,"left_children":[1,3,5,-1,-1,-1,-1],"loss_changes":[1.23101225E1,8.579273E0,7.5887737E0,0E0,0E0,0E0,0E0],"parents":[2147483647,0,0,1,1,2,2],"right_children":[2,4,6,-1,-1,-1,-1],"split_conditions":[2E0,2.6767857E1,-3.8E0,-3.9154044E-3,9.924813E-3,3.1113455E-3,-6.4891943E-4],"split_indices":[85,105,116,0,0,0,0],"split_type":[0,0,0,0,0,0,0],"sum_hessian":[1.623678E4,6.306609E2,1.5606119E4,1.4181494E2,4.8884598E2,1.4775365E3,1.4128583E4],"tree_param":{"num_deleted":"0","num_feature":"136","num_nodes":"7","size_leaf_vector":"1"}},{"base_weights":[3.0149338E-3,7.3606335E-2,-7.1619814E-3,5.2832084E-4,8.689863E-3,-1.8126218E-2,-2.6731283E-4],"categories":[],"categories_nodes":[],"categories_segments":[],"categories_sizes":[],"default_left":[0,0,0,0,0,0,0],"id":29,"left_children":[1,3,5,-1,-1,-1,-1],"loss_changes":[1.1595328E1,1.28357E1,9.093401E0,0E0,0E0,0E0,0E0],"parents":[2147483647,0,0,1,1,2,2],"right_children":[2,4,6,-1,-1,-1,-1],"split_conditions":[2.3333333E0,3.1E1,-5.8E0,5.2832084E-4,8.689863E-3,-1.8126218E-2,-2.6731283E-4],"split_indices":[85,82,126,0,0,0,0],"split_type":[0,0,0,0,0,0,0],"sum_hessian":[1.613176E4,2.0286965E3,1.4103063E4,1.2486045E3,7.8009204E2,6.664388E1,1.4036419E4],"tree_param":{"num_deleted":"0","num_feature":"136","num_nodes":"7","size_leaf_vector":"1"}},{"base_weights":[1.6511958E-3,6.807083E-3,-1.19744875E-1,6.732244E-4,-4.230985E-3,-3.8292364E-3,-3.149674E-2],"categories":[],"categories_nodes":[],"categories_segments":[],"categories_sizes":[],"default_left":[1,0,0,0,0,0,0],"id":30,"left_children":[1,3,5,-1,-1,-1,-1],"loss_changes":[1.02751045E1,9.589783E0,1.4486313E1,0E0,0E0,0E0,0E0],"parents":[2147483647,0,0,1,1,2,2],"right_children":[2,4,6,-1,-1,-1,-1],"split_conditions":[4.8206925E-1,9.054054E-1,7.6E1,6.732244E-4,-4.230985E-3,-3.8292364E-3,-3.149674E-2],"split_indices":[123,92,108,0,0,0,0],"split_type":[0,0,0,0,0,0,0],"sum_hessian":[1.64049E4,1.5741072E4,6.638291E2,1.467663E4,1.0644415E3,6.173538E2,4.6475258E1],"tree_param":{"num_deleted":"0","num_feature":"136","num_nodes":"7","size_leaf_vector":"1"}},{"base_weights":[1.3587042E-3,4.1151517E-3,-2.498937E-1,5.489563E-4,-4.585312E-3,-2.1511413E-2,3.3279061E-3],"categories":[],"categories_nodes":[],"categories_segments":[],"categories_sizes":[],"default_left":[0,0,0,0,0,0,0],"id":31,"left_children":[1,3,5,-1,-1,-1,-1],"loss_changes":[1.1301271E1,1.0619584E1,1.0248632E1,0E0,0E0,0E0,0E0],"parents":[2147483647,0,0,1,1,2,2],"right_children":[2,4,6,-1,-1,-1,-1],"split_conditions":[1E1,9.054054E-1,2.38E0,5.489563E-4,-4.585312E-3,-2.1511413E-2,3.3279061E-3],"split_indices":[49,92,124,0,0,0,0],"split_type":[0,0,0,0,0,0,0],"sum_hessian":[1.6305591E4,1.6133511E4,1.7207991E2,1.5059202E4,1.0743087E3,1.0846939E2,6.361052E1],"tree_param":{"num_deleted":"0","num_feature":"136","num_nodes":"7","size_leaf_vector":"1"}},{"base_weights":[4.137086E-3,7.4690945E-2,-5.431087E-3,9.058478E-4,7.3632784E-3,-2.4952448E-3,4.4738545E-4],"categories":[],"categories_nodes":[],"categories_segments":[],"categories_sizes":[],"default_left":[0,0,0,0,0,0,0],"id":32,"left_children":[1,3,5,-1,-1,-1,-1],"loss_changes":[1.0957417E1,7.9451857E0,9.143687E0,0E0,0E0,0E0,0E0],"parents":[2147483647,0,0,1,1,2,2],"right_children":[2,4,6,-1,-1,-1,-1],"split_conditions":[2.2E0,2.677063E0,-1.1157895E0,9.058478E-4,7.3632784E-3,-2.4952448E-3,4.4738545E-4],"split_indices":[83,48,118,0,0,0,0],"split_type":[0,0,0,0,0,0,0],"sum_hessian":[1.6223485E4,1.9333447E3,1.4290141E4,1.0899476E3,8.433971E2,3.4883313E3,1.080181E4],"tree_param":{"num_deleted":"0","num_feature":"136","num_nodes":"7","size_leaf_vector":"1"}},{"base_weights":[-3.8815464E-3,2.5176902E-3,-9.364164E-2,1.0308233E-3,-1.632661E-3,-1.0869726E-2,2.3813944E-3],"categories":[],"categories_nodes":[],"categories_segments":[],"categories_sizes":[],"default_left":[0,1,0,0,0,0,0],"id":33,"left_children":[1,3,5,-1,-1,-1,-1],"loss_changes":[9.376584E0,9.704936E0,1.9043804E1,0E0,0E0,0E0,0E0],"parents":[2147483647,0,0,1,1,2,2],"right_children":[2,4,6,-1,-1,-1,-1],"split_conditions":[9.054054E-1,3.074074E1,3.0333334E1,1.0308233E-3,-1.632661E-3,-1.0869726E-2,2.3813944E-3],"split_indices":[92,115,109,0,0,0,0],"split_type":[0,0,0,0,0,0,0],"sum_hessian":[1.6317196E4,1.5235852E4,1.0813447E3,1.0060723E4,5.175129E3,5.749719E2,5.0637283E2],"tree_param":{"num_deleted":"0","num_feature":"136","num_nodes":"7","size_leaf_vector":"1"}},{"base_weights":[5.204017E-3,1.39983315E-2,-7.375501E-2,2.331299E-4,4.345811E-3,-1.42048225E-2,-1.717346E-3],"categories":[],"categories_nodes":[],"categories_segments":[],"categories_sizes":[],"default_left":[0,0,0,0,0,0,0],"id":34,"left_children":[1,3,5,-1,-1,-1,-1],"loss_changes":[1.1195778E1,9.872055E0,1.3345301E1,0E0,0E0,0E0,0E0],"parents":[2147483647,0,0,1,1,2,2],"right_children":[2,4,6,-1,-1,-1,-1],"split_conditions":[3.45E1,3.8005848E0,-1.719473E-1,2.331299E-4,4.345811E-3,-1.42048225E-2,-1.717346E-3],"split_indices":[86,48,117,0,0,0,0],"split_type":[0,0,0,0,0,0,0],"sum_hessian":[1.6110737E4,1.4499881E4,1.610857E3,1.2858869E4,1.6410114E3,2.492792E2,1.3615779E3],"tree_param":{"num_deleted":"0","num_feature":"136","num_nodes":"7","size_leaf_vector":"1"}},{"base_weights":[2.1213295E-3,4.492571E-2,-1.0769388E-2,2.683659E-3,-1.7397963E-2,-9.461323E-4,4.3568984E-3],"categories":[],"categories_nodes":[],"categories_segments":[],"categories_sizes":[],"default_left":[0,0,0,0,0,0,0],"id":35,"left_children":[1,3,5,-1,-1,-1,-1],"loss_changes":[9.059113E0,1.3152781E1,1.0081293E1,0E0,0E0,0E0,0E0],"parents":[2147483647,0,0,1,1,2,2],"right_children":[2,4,6,-1,-1,-1,-1],"split_conditions":[-3.435021E-1,1.0055955E1,4.157991E0,2.683659E-3,-1.7397963E-2,-9.461323E-4,4.3568984E-3],"split_indices":[121,36,48,0,0,0,0],"split_type":[0,0,0,0,0,0,0],"sum_hessian":[1.6408621E4,3.794925E3,1.2613695E4,3.716495E3,7.842982E1,1.1647759E4,9.659361E2],"tree_param":{"num_deleted":"0","num_feature":"136","num_nodes":"7","size_leaf_vector":"1"}},{"base_weights":[-3.2180268E-3,9.680031E-3,-5.5387802E-2,1.4551693E-3,-2.33828E-3,-3.588393E-3,7.44068E-3],"categories":[],"categories_nodes":[],"categories_segments":[],"categories_sizes":[],"default_left":[0,0,0,0,0,0,0],"id":36,"left_children":[1,3,5,-1,-1,-1,-1],"loss_changes":[1.0874227E1,1.4213657E1,1.0768124E1,0E0,0E0,0E0,0E0],"parents":[2147483647,0,0,1,1,2,2],"right_children":[2,4,6,-1,-1,-1,-1],"split_conditions":[6.5E1,5.5E0,3.3703705E1,1.4551693E-3,-2.33828E-3,-3.588393E-3,7.44068E-3],"split_indices":[108,49,109,0,0,0,0],"split_type":[0,0,0,0,0,0,0],"sum_hessian":[1.6151527E4,1.2953159E4,3.1983682E3,9.6388E3,3.3143594E3,2.963864E3,2.3450421E2],"tree_param":{"num_deleted":"0","num_feature":"136","num_nodes":"7","size_leaf_vector":"1"}},{"base_weights":[-1.5303432E-3,3.8765732E-3,-1.1916735E-1,-9.2607654E-5,4.8778276E-3,8.235355E-3,-8.881964E-3],"categories":[],"categories_nodes":[],"categories_segments":[],"categories_sizes":[],"default_left":[0,0,0,0,0,0,0],"id":37,"left_children":[1,3,5,-1,-1,-1,-1],"loss_changes":[1.031893E1,8.325593E0,1.1979513E1,0E0,0E0,0E0,0E0],"parents":[2147483647,0,0,1,1,2,2],"right_children":[2,4,6,-1,-1,-1,-1],"split_conditions":[2.1679482E0,4.3011627E0,8.7666667E-1,-9.2607654E-5,4.8778276E-3,8.235355E-3,-8.881964E-3],"split_indices":[40,48,91,0,0,0,0],"split_type":[0,0,0,0,0,0,0],"sum_hessian":[1.6214738E4,1.5506837E4,7.079011E2,1.4617827E4,8.890095E2,1.1935621E2,5.885449E2],"tree_param":{"num_deleted":"0","num_feature":"136","num_nodes":"7","size_leaf_vector":"1"}},{"base_weights":[3.4285693E-3,-1.6377174E-3,1.1424097E-1,8.8609215E-7,-1.5074029E-2,2.6989484E-3,1.3895503E-2],"categories":[],"categories_nodes":[],"categories_segments":[],"categories_sizes":[],"default_left":[0,0,1,0,0,0,0],"id":38,"left_children":[1,3,5,-1,-1,-1,-1],"loss_changes":[9.052011E0,7.6551595E0,6.8778334E0,0E0,0E0,0E0,0E0],"parents":[2147483647,0,0,1,1,2,2],"right_children":[2,4,6,-1,-1,-1,-1],"split_conditions":[7.3E0,1.0666667E1,2.8021431E1,8.8609215E-7,-1.5074029E-2,2.6989484E-3,1.3895503E-2],"split_indices":[95,49,107,0,0,0,0],"split_type":[0,0,0,0,0,0,0],"sum_hessian":[1.6117118E4,1.5417179E4,6.999395E2,1.53375E4,7.967898E1,5.164388E2,1.835007E2],"tree_param":{"num_deleted":"0","num_feature":"136","num_nodes":"7","size_leaf_vector":"1"}},{"base_weights":[-5.2480744E-3,-1.056747E-1,8.5104624E-4,-6.590642E-3,1.7900368E-2,1.820744E-3,-7.174052E-4],"categories":[],"categories_nodes":[],"categories_segments":[],"categories_sizes":[],"default_left":[0,0,0,0,0,0,0],"id":39,"left_children":[1,3,5,-1,-1,-1,-1],"loss_changes":[9.770949E0,1.1305427E1,8.134025E0,0E0,0E0,0E0,0E0],"parents":[2147483647,0,0,1,1,2,2],"right_children":[2,4,6,-1,-1,-1,-1],"split_conditions":[-3.5785713E0,5.3E1,1.2516656E0,-6.590642E-3,1.7900368E-2,1.820744E-3,-7.174052E-4],"split_indices":[118,112,18,0,0,0,0],"split_type":[0,0,0,0,0,0,0],"sum_hessian":[1.5946467E4,9.0833954E2,1.5038127E4,8.6325574E2,4.5083805E1,4.5005366E3,1.0537591E4],"tree_param":{"num_deleted":"0","num_feature":"136","num_nodes":"7","size_leaf_vector":"1"}},{"base_weights":[3.0483028E-3,2.9607857E-2,-1.7011808E-2,2.7445843E-3,-2.2054797E-3,-5.801933E-3,-2.5668956E-4],"categories":[],"categories_nodes":[],"categories_segments":[],"categories_sizes":[],"default_left":[0,0,0,0,0,0,0],"id":40,"left_children":[1,3,5,-1,-1,-1,-1],"loss_changes":[8.626679E0,1.2997461E1,1.08477955E1,0E0,0E0,0E0,0E0],"parents":[2147483647,0,0,1,1,2,2],"right_children":[2,4,6,-1,-1,-1,-1],"split_conditions":[5.391022E-2,5E0,3.9993525E-2,2.7445843E-3,-2.2054797E-3,-5.801933E-3,-2.5668956E-4],"split_indices":[24,43,22,0,0,0,0],"split_type":[0,0,0,0,0,0,0],"sum_hessian":[1.6181864E4,6.961917E3,9.219947E3,5.184871E3,1.7770457E3,9.8276917E2,8.237178E3],"tree_param":{"num_deleted":"0","num_feature":"136","num_nodes":"7","size_leaf_vector":"1"}},{"base_weights":[2.1740163E-3,2.1787257E-1,-3.098259E-4,5.71087E-3,2.0276261E-2,-2.2842425E-3,5.27455E-4],"categories":[],"categories_nodes":[],"categories_segments":[],"categories_sizes":[],"default_left":[0,0,0,0,0,0,0],"id":41,"left_children":[1,3,5,-1,-1,-1,-1],"loss_changes":[8.714886E0,3.3703814E0,7.9281483E0,0E0,0E0,0E0,0E0],"parents":[2147483647,0,0,1,1,2,2],"right_children":[2,4,6,-1,-1,-1,-1],"split_conditions":[1.2E0,4E0,-1.6E0,5.71087E-3,2.0276261E-2,-2.2842425E-3,5.27455E-4],"split_indices":[83,26,118,0,0,0,0],"split_type":[0,0,0,0,0,0,0],"sum_hessian":[1.6260732E4,1.8018022E2,1.6080553E4,1.21248535E2,5.8931686E1,3.102101E3,1.2978451E4],"tree_param":{"num_deleted":"0","num_feature":"136","num_nodes":"7","size_leaf_vector":"1"}},{"base_weights":[-7.3960433E-3,2.7088076E-1,-9.439995E-3,2.6519386E-2,2.7372313E-3,2.648552E-3,-8.957898E-4],"categories":[],"categories_nodes":[],"categories_segments":[],"categories_sizes":[],"default_left":[0,0,0,0,0,0,0],"id":42,"left_children":[1,3,5,-1,-1,-1,-1],"loss_changes":[9.1962385E0,6.4673986E0,8.485866E0,0E0,0E0,0E0,0E0],"parents":[2147483647,0,0,1,1,2,2],"right_children":[2,4,6,-1,-1,-1,-1],"split_conditions":[-7.8E0,7.637626E0,2.2E0,2.6519386E-2,2.7372313E-3,2.648552E-3,-8.957898E-4],"split_indices":[116,8,83,0,0,0,0],"split_type":[0,0,0,0,0,0,0],"sum_hessian":[1.6140759E4,1.12894745E2,1.6027864E4,4.799687E1,6.489788E1,1.9132821E3,1.4114582E4],"tree_param":{"num_deleted":"0","num_feature":"136","num_nodes":"7","size_leaf_vector":"1"}},{"base_weights":[2.6340329E-3,2.1232234E-2,-3.451392E-2,5.405655E-5,4.029361E-3,1.8740578E-3,-3.6963304E-3],"categories":[],"categories_nodes":[],"categories_segments":[],"categories_sizes":[],"default_left":[0,0,0,0,0,0,0],"id":43,"left_children":[1,3,5,-1,-1,-1,-1],"loss_changes":[1.1213223E1,1.2935059E1,1.5378777E1,0E0,0E0,0E0,0E0],"parents":[2147483647,0,0,1,1,2,2],"right_children":[2,4,6,-1,-1,-1,-1],"split_conditions":[5.4E1,4E1,6.752301E0,5.405655E-5,4.029361E-3,1.8740578E-3,-3.6963304E-3],"split_indices":[104,108,106,0,0,0,0],"split_type":[0,0,0,0,0,0,0],"sum_hessian":[1.6219926E4,1.0810013E4,5.4099136E3,8.0739766E3,2.736036E3,1.91395E3,3.4959636E3],"tree_param":{"num_deleted":"0","num_feature":"136","num_nodes":"7","size_leaf_vector":"1"}},{"base_weights":[9.860764E-4,5.7645846E-2,-9.979907E-3,2.3607987E-3,2.1153426E-2,3.758163E-4,-2.1869391E-3],"categories":[],"categories_nodes":[],"categories_segments":[],"categories_sizes":[],"default_left":[0,0,0,0,0,0,0],"id":44,"left_children":[1,3,5,-1,-1,-1,-1],"loss_changes":[1.006594E1,9.912558E0,8.019153E0,0E0,0E0,0E0,0E0],"parents":[2147483647,0,0,1,1,2,2],"right_children":[2,4,6,-1,-1,-1,-1],"split_conditions":[2.25E0,1.6666666E0,4E-1,2.3607987E-3,2.1153426E-2,3.758163E-4,-2.1869391E-3],"split_indices":[79,63,122,0,0,0,0],"split_type":[0,0,0,0,0,0,0],"sum_hessian":[1.6191002E4,2.6220317E3,1.356897E4,2.55476E3,6.727177E1,8.939683E3,4.629288E3],"tree_param":{"num_deleted":"0","num_feature":"136","num_nodes":"7","size_leaf_vector":"1"}},{"base_weights":[3.85744E-3,-1.06229605E-2,4.899205E-2,-4.2311894E-3,1.6467417E-4,3.1258978E-3,-8.844466E-3],"categories":[],"categories_nodes":[],"categories_segments":[],"categories_sizes":[],"default_left":[0,0,1,0,0,0,0],"id":45,"left_children":[1,3,5,-1,-1,-1,-1],"loss_changes":[1.0626708E1,1.267984E1,1.21215315E1,0E0,0E0,0E0,0E0],"parents":[2147483647,0,0,1,1,2,2],"right_children":[2,4,6,-1,-1,-1,-1],"split_conditions":[1.2E0,-2E0,7.376027E-1,-4.2311894E-3,1.6467417E-4,3.1258978E-3,-8.844466E-3],"split_indices":[69,118,119,0,0,0,0],"split_type":[0,0,0,0,0,0,0],"sum_hessian":[1.6250569E4,1.2306224E4,3.9443457E3,1.9439337E3,1.036229E4,3.7249119E3,2.1943373E2],"tree_param":{"num_deleted":"0","num_feature":"136","num_nodes":"7","size_leaf_vector":"1"}},{"base_weights":[3.4902887E-3,-2.584486E-3,9.7305104E-2,1.2741082E-3,-1.1887721E-3,1.7514E-3,1.12312E-2],"categories":[],"categories_nodes":[],"categories_segments":[],"categories_sizes":[],"default_left":[0,0,0,0,0,0,0],"id":46,"left_children":[1,3,5,-1,-1,-1,-1],"loss_changes":[9.245641E0,9.0667715E0,7.7835007E0,0E0,0E0,0E0,0E0],"parents":[2147483647,0,0,1,1,2,2],"right_children":[2,4,6,-1,-1,-1,-1],"split_conditions":[3.54E1,-1.267091E-1,8.56E-1,1.2741082E-3,-1.1887721E-3,1.7514E-3,1.12312E-2],"split_indices":[82,121,92,0,0,0,0],"split_type":[0,0,0,0,0,0,0],"sum_hessian":[1.6215951E4,1.5234347E4,9.816048E2,6.553484E3,8.680862E3,6.634558E2,3.1814896E2],"tree_param":{"num_deleted":"0","num_feature":"136","num_nodes":"7","size_leaf_vector":"1"}},{"base_weights":[2.4016001E-3,-1.6905202E-2,4.07498E-2,-1.3055243E-3,4.296971E-3,-1.1252844E-3,3.8121701E-3],"categories":[],"categories_nodes":[],"categories_segments":[],"categories_sizes":[],"default_left":[0,0,0,0,0,0,0],"id":47,"left_children":[1,3,5,-1,-1,-1,-1],"loss_changes":[1.2082821E1,1.0288007E1,1.2278092E1,0E0,0E0,0E0,0E0],"parents":[2147483647,0,0,1,1,2,2],"right_children":[2,4,6,-1,-1,-1,-1],"split_conditions":[9.081817E-1,1.3784049E0,5.0299106E0,-1.3055243E-3,4.296971E-3,-1.1252844E-3,3.8121701E-3],"split_indices":[23,66,4,0,0,0,0],"split_type":[0,0,0,0,0,0,0],"sum_hessian":[1.6310079E4,1.0850219E4,5.4598604E3,9.96226E3,8.879586E2,1.9631073E3,3.4967532E3],"tree_param":{"num_deleted":"0","num_feature":"136","num_nodes":"7","size_leaf_vector":"1"}},{"base_weights":[-5.090427E-3,6.86213E-2,-1.2509863E-2,7.969427E-3,6.703226E-4,-1.5240837E-3,1.1234082E-3],"categories":[],"categories_nodes":[],"categories_segments":[],"categories_sizes":[],"default_left":[0,0,0,0,0,0,0],"id":48,"left_children":[1,3,5,-1,-1,-1,-1],"loss_changes":[8.894341E0,7.4433265E0,9.290029E0,0E0,0E0,0E0,0E0],"parents":[2147483647,0,0,1,1,2,2],"right_children":[2,4,6,-1,-1,-1,-1],"split_conditions":[-3.8727272E0,2.8221735E1,7.2111025E0,7.969427E-3,6.703226E-4,-1.5240837E-3,1.1234082E-3],"split_indices":[116,111,8,0,0,0,0],"split_type":[0,0,0,0,0,0,0],"sum_hessian":[1.6250363E4,1.4823221E3,1.4768041E4,5.570912E2,9.2523096E2,9.756016E3,5.0120254E3],"tree_param":{"num_deleted":"0","num_feature":"136","num_nodes":"7","size_leaf_vector":"1"}},{"base_weights":[-4.7663855E-3,-1.8400142E-1,-8.9516345E-4,-2.017013E-2,2.2103822E-4,9.922623E-3,-2.4143029E-4],"categories":[],"categories_nodes":[],"categories_segments":[],"categories_sizes":[],"default_left":[0,0,0,0,0,0,0],"id":49,"left_children":[1,3,5,-1,-1,-1,-1],"loss_changes":[1.1269364E1,1.4204237E1,1.24757805E1,0E0,0E0,0E0,0E0],"parents":[2147483647,0,0,1,1,2,2],"right_children":[2,4,6,-1,-1,-1,-1],"split_conditions":[-4.2E0,6.498718E0,-5.489474E0,-2.017013E-2,2.2103822E-4,9.922623E-3,-2.4143029E-4],"split_indices":[126,6,120,0,0,0,0],"split_type":[0,0,0,0,0,0,0],"sum_hessian":[1.6237772E4,3.3837936E2,1.5899393E4,1.5370201E2,1.8467735E2,3.0286514E2,1.5596527E4],"tree_param":{"num_deleted":"0","num_feature":"136","num_nodes":"7","size_leaf_vector":"1"}},{"base_weights":[1.6882579E-3,6.0126567E-3,-1.1265627E-1,1.596003E-5,4.9484856E-3,-1.2453469E-3,-2.2058714E-2],"categories":[],"categories_nodes":[],"categories_segments":[],"categories_sizes":[],"default_left":[0,0,0,0,0,0,0],"id":50,"left_children":[1,3,5,-1,-1,-1,-1],"loss_changes":[8.013753E0,8.263645E0,1.6970144E1,0E0,0E0,0E0,0E0],"parents":[2147483647,0,0,1,1,2,2],"right_children":[2,4,6,-1,-1,-1,-1],"split_conditions":[1.67332E0,1.3703203E0,7.933053E0,1.596003E-5,4.9484856E-3,-1.2453469E-3,-2.2058714E-2],"split_indices":[72,66,36,0,0,0,0],"split_type":[0,0,0,0,0,0,0],"sum_hessian":[1.6194859E4,1.560927E4,5.8559033E2,1.4713133E4,8.961364E2,4.663928E2,1.19197525E2],"tree_param":{"num_deleted":"0","num_feature":"136","num_nodes":"7","size_leaf_vector":"1"}},{"base_weights":[-3.9406987E-3,-8.667241E-3,1.1259762E-1,-2.8195622E-4,-8.422222E-3,2.5546302E-3,1.4203332E-2],"categories":[],"categories_nodes":[],"categories_segments":[],"categories_sizes":[],"default_left":[0,1,0,0,0,0,0],"id":51,"left_children":[1,3,5,-1,-1,-1,-1],"loss_changes":[8.868055E0,7.4791603E0,6.5454693E0,0E0,0E0,0E0,0E0],"parents":[2147483647,0,0,1,1,2,2],"right_children":[2,4,6,-1,-1,-1,-1],"split_conditions":[7.5E0,4.5666666E0,2.86E1,-2.8195622E-4,-8.422222E-3,2.5546302E-3,1.4203332E-2],"split_indices":[95,122,11,0,0,0,0],"split_type":[0,0,0,0,0,0,0],"sum_hessian":[1.6085779E4,1.5463251E4,6.2252783E2,1.5180721E4,2.8253033E2,4.6295734E2,1.5957048E2],"tree_param":{"num_deleted":"0","num_feature":"136","num_nodes":"7","size_leaf_vector":"1"}},{"base_weights":[-5.220571E-4,3.4135673E-3,-1.1705162E-1,5.8628473E-4,-2.715539E-3,1.284862E-2,-8.164741E-3],"categories":[],"categories_nodes":[],"categories_segments":[],"categories_sizes":[],"default_left":[0,1,0,0,0,0,0],"id":52,"left_children":[1,3,5,-1,-1,-1,-1],"loss_changes":[7.464315E0,7.5576496E0,9.406662E0,0E0,0E0,0E0,0E0],"parents":[2147483647,0,0,1,1,2,2],"right_children":[2,4,6,-1,-1,-1,-1],"split_conditions":[2.2173557E0,8.468137E0,8.738739E-1,5.8628473E-4,-2.715539E-3,1.284862E-2,-8.164741E-3],"split_indices":[40,106,91,0,0,0,0],"split_type":[0,0,0,0,0,0,0],"sum_hessian":[1.6266364E4,1.5739633E4,5.267308E2,1.376194E4,1.9776927E3,5.5450607E1,4.7128015E2],"tree_param":{"num_deleted":"0","num_feature":"136","num_nodes":"7","size_leaf_vector":"1"}},{"base_weights":[2.3658245E-3,9.141794E-3,-7.854764E-2,-1.0767921E-3,1.4565173E-3,3.4818386E-3,-6.4677163E-3],"categories":[],"categories_nodes":[],"categories_segments":[],"categories_sizes":[],"default_left":[1,0,1,0,0,0,0],"id":53,"left_children":[1,3,5,-1,-1,-1,-1],"loss_changes":[8.987655E0,9.277538E0,9.58193E0,0E0,0E0,0E0,0E0],"parents":[2147483647,0,0,1,1,2,2],"right_children":[2,4,6,-1,-1,-1,-1],"split_conditions":[8.888194E0,2.91E1,-3.418619E-1,-1.0767921E-3,1.4565173E-3,3.4818386E-3,-6.4677163E-3],"split_indices":[106,82,117,0,0,0,0],"split_type":[0,0,0,0,0,0,0],"sum_hessian":[1.6381286E4,1.5119558E4,1.2617283E3,5.964734E3,9.154824E3,3.216731E2,9.400552E2],"tree_param":{"num_deleted":"0","num_feature":"136","num_nodes":"7","size_leaf_vector":"1"}},{"base_weights":[-6.647809E-3,-1.0076098E-2,1.3944471E-1,-3.1141166E-4,-8.370009E-3,-7.020427E-4,1.2256771E-2],"categories":[],"categories_nodes":[],"categories_segments":[],"categories_sizes":[],"default_left":[0,0,0,0,0,0,0],"id":54,"left_children":[1,3,5,-1,-1,-1,-1],"loss_changes":[8.129461E0,9.589899E0,6.05467E0,0E0,0E0,0E0,0E0],"parents":[2147483647,0,0,1,1,2,2],"right_children":[2,4,6,-1,-1,-1,-1],"split_conditions":[5.7735026E-1,5E-1,6.914156E0,-3.1141166E-4,-8.370009E-3,-7.020427E-4,1.2256771E-2],"split_indices":[76,78,106,0,0,0,0],"split_type":[0,0,0,0,0,0,0],"sum_hessian":[1.6212384E4,1.5845207E4,3.671774E2,1.5471987E4,3.732192E2,1.5150108E2,2.1567632E2],"tree_param":{"num_deleted":"0","num_feature":"136","num_nodes":"7","size_leaf_vector":"1"}},{"base_weights":[2.7657056E-3,-2.7469229E-2,2.0613879E-2,-1.9100237E-3,7.7874023E-3,-1.1716466E-3,2.0732298E-3],"categories":[],"categories_nodes":[],"categories_segments":[],"categories_sizes":[],"default_left":[0,0,0,0,0,0,0],"id":55,"left_children":[1,3,5,-1,-1,-1,-1],"loss_changes":[8.74495E0,1.1857075E1,9.362959E0,0E0,0E0,0E0,0E0],"parents":[2147483647,0,0,1,1,2,2],"right_children":[2,4,6,-1,-1,-1,-1],"split_conditions":[8.9705884E-1,1.974E2,-1.4815173E-1,-1.9100237E-3,7.7874023E-3,-1.1716466E-3,2.0732298E-3],"split_indices":[91,103,127,0,0,0,0],"split_type":[0,0,0,0,0,0,0],"sum_hessian":[1.619496E4,6.0104756E3,1.0184484E4,5.6816523E3,3.2882336E2,3.271941E3,6.9125435E3],"tree_param":{"num_deleted":"0","num_feature":"136","num_nodes":"7","size_leaf_vector":"1"}},{"base_weights":[8.8654144E-4,1.7732732E-2,-3.3188533E-2,1.3267687E-3,-6.0747615E-3,-2.3765338E-3,9.255349E-3],"categories":[],"categories_nodes":[],"categories_segments":[],"categories_sizes":[],"default_left":[0,0,0,0,0,0,0],"id":56,"left_children":[1,3,5,-1,-1,-1,-1],"loss_changes":[9.339493E0,1.3359166E1,1.6895931E1,0E0,0E0,0E0,0E0],"parents":[2147483647,0,0,1,1,2,2],"right_children":[2,4,6,-1,-1,-1,-1],"split_conditions":[5.4E1,2.04939E0,3.39E1,1.3267687E-3,-6.0747615E-3,-2.3765338E-3,9.255349E-3],"split_indices":[104,40,109,0,0,0,0],"split_type":[0,0,0,0,0,0,0],"sum_hessian":[1.6259769E4,1.0882184E4,5.3775854E3,1.0238881E4,6.4330273E2,5.049727E3,3.2785876E2],"tree_param":{"num_deleted":"0","num_feature":"136","num_nodes":"7","size_leaf_vector":"1"}},{"base_weights":[-1.0106274E-3,-2.6442648E-3,3.4694803E-1,-6.769439E-4,1.8778257E-3,2.7877504E-2,1.9775806E-3],"categories":[],"categories_nodes":[],"categories_segments":[],"categories_sizes":[],"default_left":[1,0,0,0,0,0,0],"id":57,"left_children":[1,3,5,-1,-1,-1,-1],"loss_changes":[9.179323E0,7.040659E0,4.774947E0,0E0,0E0,0E0,0E0],"parents":[2147483647,0,0,1,1,2,2],"right_children":[2,4,6,-1,-1,-1,-1],"split_conditions":[8.707692E0,5.6666666E-1,9.06453E-1,-6.769439E-4,1.8778257E-3,2.7877504E-2,1.9775806E-3],"split_indices":[116,100,21,0,0,0,0],"split_type":[0,0,0,0,0,0,0],"sum_hessian":[1.613525E4,1.6064789E4,7.046087E1,1.2642047E4,3.4227424E3,3.939906E1,3.1061813E1],"tree_param":{"num_deleted":"0","num_feature":"136","num_nodes":"7","size_leaf_vector":"1"}},{"base_weights":[-3.4099426E-3,1.7558324E-1,-7.086005E-3,-9.721838E-3,1.11661535E-2,-1.189434E-2,-2.1244216E-4],"categories":[],"categories_nodes":[],"categories_segments":[],"categories_sizes":[],"default_left":[0,0,0,0,0,0,0],"id":58,"left_children":[1,3,5,-1,-1,-1,-1],"loss_changes":[1.0530664E1,5.9064894E0,1.0261044E1,0E0,0E0,0E0,0E0],"parents":[2147483647,0,0,1,1,2,2],"right_children":[2,4,6,-1,-1,-1,-1],"split_conditions":[-9.182802E-1,-4.5630613E-1,-4.4169016E0,-9.721838E-3,1.11661535E-2,-1.189434E-2,-2.1244216E-4],"split_indices":[121,119,126,0,0,0,0],"split_type":[0,0,0,0,0,0,0],"sum_hessian":[1.5989834E4,3.1707632E2,1.5672758E4,3.4478382E1,2.8259796E2,1.8529059E2,1.5487468E4],"tree_param":{"num_deleted":"0","num_feature":"136","num_nodes":"7","size_leaf_vector":"1"}},{"base_weights":[1.452651E-3,-2.1574413E-2,2.5510537E-2,-1.8676094E-4,-4.5542517E-3,8.601403E-3,7.58659E-4],"categories":[],"categories_nodes":[],"categories_segments":[],"categories_sizes":[],"default_left":[0,0,0,0,0,0,0],"id":59,"left_children":[1,3,5,-1,-1,-1,-1],"loss_changes":[9.00695E0,1.0299608E1,1.2029812E1,0E0,0E0,0E0,0E0],"parents":[2147483647,0,0,1,1,2,2],"right_children":[2,4,6,-1,-1,-1,-1],"split_conditions":[1E0,6.5E1,2E0,-1.8676094E-4,-4.5542517E-3,8.601403E-3,7.58659E-4],"split_indices":[0,108,79,0,0,0,0],"split_type":[0,0,0,0,0,0,0],"sum_hessian":[1.6248581E4,8.302418E3,7.9461636E3,6.611032E3,1.6913856E3,5.185295E2,7.427634E3],"tree_param":{"num_deleted":"0","num_feature":"136","num_nodes":"7","size_leaf_vector":"1"}},{"base_weights":[2.0264997E-3,-7.669437E-3,6.5023005E-2,2.5730528E-4,-3.272197E-3,7.6470845E-3,-7.218118E-5],"categories":[],"categories_nodes":[],"categories_segments":[],"categories_sizes":[],"default_left":[0,0,0,0,0,0,0],"id":60,"left_children":[1,3,5,-1,-1,-1,-1],"loss_changes":[9.984958E0,1.04915285E1,1.2742644E1,0E0,0E0,0E0,0E0],"parents":[2147483647,0,0,1,1,2,2],"right_children":[2,4,6,-1,-1,-1,-1],"split_conditions":[3.734226E0,4E0,3.4641016E0,2.5730528E-4,-3.272197E-3,7.6470845E-3,-7.218118E-5],"split_indices":[48,83,50,0,0,0,0],"split_type":[0,0,0,0,0,0,0],"sum_hessian":[1.6337989E4,1.4162585E4,2.1754048E3,1.1595111E4,2.5674734E3,9.3376404E2,1.2416407E3],"tree_param":{"num_deleted":"0","num_feature":"136","num_nodes":"7","size_leaf_vector":"1"}},{"base_weights":[1.3333232E-3,5.5126783E-2,-9.012295E-3,6.634219E-4,6.65198E-3,1.3297722E-3,-1.3676095E-3],"categories":[],"categories_nodes":[],"categories_segments":[],"categories_sizes":[],"default_left":[0,1,0,0,0,0,0],"id":61,"left_children":[1,3,5,-1,-1,-1,-1],"loss_changes":[9.094384E0,8.587426E0,8.954254E0,0E0,0E0,0E0,0E0],"parents":[2147483647,0,0,1,1,2,2],"right_children":[2,4,6,-1,-1,-1,-1],"split_conditions":[2.25E0,1.8344484E-1,2.1679482E0,6.634219E-4,6.65198E-3,1.3297722E-3,-1.3676095E-3],"split_indices":[79,125,52,0,0,0,0],"split_type":[0,0,0,0,0,0,0],"sum_hessian":[1.6331867E4,2.6308354E3,1.3701032E4,1.7152017E3,9.1563367E2,4.6570015E3,9.04403E3],"tree_param":{"num_deleted":"0","num_feature":"136","num_nodes":"7","size_leaf_vector":"1"}},{"base_weights":[5.519933E-3,-6.414654E-2,1.49528105E-2,-6.3164844E-3,7.7081815E-4,3.0413177E-4,3.912948E-3],"categories":[],"categories_nodes":[],"categories_segments":[],"categories_sizes":[],"default_left":[0,1,0,0,0,0,0],"id":62,"left_children":[1,3,5,-1,-1,-1,-1],"loss_changes":[1.065783E1,9.578859E0,8.017311E0,0E0,0E0,0E0,0E0],"parents":[2147483647,0,0,1,1,2,2],"right_children":[2,4,6,-1,-1,-1,-1],"split_conditions":[5.2704626E-1,8.9268E-2,3.3583332E1,-6.3164844E-3,7.7081815E-4,3.0413177E-4,3.912948E-3],"split_indices":[72,125,109,0,0,0,0],"split_type":[0,0,0,0,0,0,0],"sum_hessian":[1.6205831E4,1.9291442E3,1.42766875E4,1.0811906E3,8.479537E2,1.2526947E4,1.7497396E3],"tree_param":{"num_deleted":"0","num_feature":"136","num_nodes":"7","size_leaf_vector":"1"}},{"base_weights":[-3.043509E-3,-7.9447046E-2,4.3327743E-3,-7.176008E-3,2.8208385E-3,9.984523E-4,-1.5304427E-3],"categories":[],"categories_nodes":[],"categories_segments":[],"categories_sizes":[],"default_left":[0,1,0,0,0,0,0],"id":63,"left_children":[1,3,5,-1,-1,-1,-1],"loss_changes":[9.1502285E0,1.2484358E1,8.093805E0,0E0,0E0,0E0,0E0],"parents":[2147483647,0,0,1,1,2,2],"right_children":[2,4,6,-1,-1,-1,-1],"split_conditions":[1.9666666E1,1.1644776E-1,4.5E0,-7.176008E-3,2.8208385E-3,9.984523E-4,-1.5304427E-3],"split_indices":[1,125,43,0,0,0,0],"split_type":[0,0,0,0,0,0,0],"sum_hessian":[1.6228016E4,1.4244729E3,1.4803543E4,9.677854E2,4.5668747E2,1.0228475E4,4.575069E3],"tree_param":{"num_deleted":"0","num_feature":"136","num_nodes":"7","size_leaf_vector":"1"}},{"base_weights":[3.3013884E-3,-8.991551E-2,9.306846E-3,-1.1713385E-2,-9.8200224E-5,1.0957538E-2,3.3701753E-4],"categories":[],"categories_nodes":[],"categories_segments":[],"categories_sizes":[],"default_left":[0,0,0,0,0,0,0],"id":64,"left_children":[1,3,5,-1,-1,-1,-1],"loss_changes":[9.035118E0,1.24000435E1,8.157383E0,0E0,0E0,0E0,0E0],"parents":[2147483647,0,0,1,1,2,2],"right_children":[2,4,6,-1,-1,-1,-1],"split_conditions":[2.1333334E1,2.9E1,-1.0098804E0,-1.1713385E-2,-9.8200224E-5,1.0957538E-2,3.3701753E-4],"split_indices":[7,109,121,0,0,0,0],"split_type":[0,0,0,0,0,0,0],"sum_hessian":[1.6127138E4,9.718707E2,1.5155268E4,3.6480655E2,6.0706415E2,1.7801865E2,1.4977249E4],"tree_param":{"num_deleted":"0","num_feature":"136","num_nodes":"7","size_leaf_vector":"1"}},{"base_weights":[1.8619925E-3,9.267106E-3,-6.290332E-2,2.9946087E-4,1.0927712E-2,-2.1265734E-2,-2.032576E-3],"categories":[],"categories_nodes":[],"categories_segments":[],"categories_sizes":[],"default_left":[1,0,0,0,0,0,0],"id":65,"left_children":[1,3,5,-1,-1,-1,-1],"loss_changes":[7.8188753E0,1.0029382E1,1.3403627E1,0E0,0E0,0E0,0E0],"parents":[2147483647,0,0,1,1,2,2],"right_children":[2,4,6,-1,-1,-1,-1],"split_conditions":[5.1034915E-1,5.5E1,8.232726E-1,2.9946087E-4,1.0927712E-2,-2.1265734E-2,-2.032576E-3],"split_indices":[121,112,18,0,0,0,0],"split_type":[0,0,0,0,0,0,0],"sum_hessian":[1.629202E4,1.4624207E4,1.6678126E3,1.4403756E4,2.2045085E2,9.123966E1,1.576573E3],"tree_param":{"num_deleted":"0","num_feature":"136","num_nodes":"7","size_leaf_vector":"1"}},{"base_weights":[8.106492E-3,3.9268985E-2,-6.6412846E-3,2.3045752E-3,-1.304735E-2,-2.8952232E-3,8.41422E-4],"categories":[],"categories_nodes":[],"categories_segments":[],"categories_sizes":[],"default_left":[0,0,0,0,0,0,0],"id":66,"left_children":[1,3,5,-1,-1,-1,-1],"loss_changes":[7.498939E0,1.0795601E1,1.3332999E1,0E0,0E0,0E0,0E0],"parents":[2147483647,0,0,1,1,2,2],"right_children":[2,4,6,-1,-1,-1,-1],"split_conditions":[2.2E1,1.78E2,2.16E1,2.3045752E-3,-1.304735E-2,-2.8952232E-3,8.41422E-4],"split_indices":[31,87,29,0,0,0,0],"split_type":[0,0,0,0,0,0,0],"sum_hessian":[1.6309191E4,5.2363384E3,1.1072853E4,5.124123E3,1.1221523E2,3.4751042E3,7.5977485E3],"tree_param":{"num_deleted":"0","num_feature":"136","num_nodes":"7","size_leaf_vector":"1"}},{"base_weights":[-2.2411405E-3,6.7375717E-3,-6.187708E-2,2.7052607E-4,2.0448888E-2,3.6637366E-4,-7.6869815E-3],"categories":[],"categories_nodes":[],"categories_segments":[],"categories_sizes":[],"default_left":[0,1,0,0,0,0,0],"id":67,"left_children":[1,3,5,-1,-1,-1,-1],"loss_changes":[8.742595E0,7.564531E0,1.3588294E1,0E0,0E0,0E0,0E0],"parents":[2147483647,0,0,1,1,2,2],"right_children":[2,4,6,-1,-1,-1,-1],"split_conditions":[8.259674E0,8.707692E0,3.3333335E-2,2.7052607E-4,2.0448888E-2,3.6637366E-4,-7.6869815E-3],"split_indices":[36,116,99,0,0,0,0],"split_type":[0,0,0,0,0,0,0],"sum_hessian":[1.6318553E4,1.418701E4,2.1315432E3,1.4145409E4,4.1600563E1,1.2183225E3,9.1322076E2],"tree_param":{"num_deleted":"0","num_feature":"136","num_nodes":"7","size_leaf_vector":"1"}},{"base_weights":[1.208059E-4,1.0447076E-1,-4.400887E-3,6.374412E-3,-1.5374148E-2,-4.625132E-3,1.3342027E-4],"categories":[],"categories_nodes":[],"categories_segments":[],"categories_sizes":[],"default_left":[0,0,0,0,0,0,0],"id":68,"left_children":[1,3,5,-1,-1,-1,-1],"loss_changes":[7.693369E0,6.6171913E0,9.734636E0,0E0,0E0,0E0,0E0],"parents":[2147483647,0,0,1,1,2,2],"right_children":[2,4,6,-1,-1,-1,-1],"split_conditions":[2E0,9.72973E-1,1.9333334E1,6.374412E-3,-1.5374148E-2,-4.625132E-3,1.3342027E-4],"split_indices":[85,19,1,0,0,0,0],"split_type":[0,0,0,0,0,0,0],"sum_hessian":[1.6295219E4,6.721882E2,1.562303E4,6.3988776E2,3.2300404E1,1.1559883E3,1.4467042E4],"tree_param":{"num_deleted":"0","num_feature":"136","num_nodes":"7","size_leaf_vector":"1"}},{"base_weights":[-4.513319E-3,-9.539023E-3,1.0610515E-1,-2.5227747E-3,1.9643913E-4,3.2371115E-3,1.618312E-2],"categories":[],"categories_nodes":[],"categories_segments":[],"categories_sizes":[],"default_left":[0,0,0,0,0,0,0],"id":69,"left_children":[1,3,5,-1,-1,-1,-1],"loss_changes":[9.008782E0,8.540344E0,6.232607E0,0E0,0E0,0E0,0E0],"parents":[2147483647,0,0,1,1,2,2],"right_children":[2,4,6,-1,-1,-1,-1],"split_conditions":[7.3E0,-1.1157895E0,3E0,-2.5227747E-3,1.9643913E-4,3.2371115E-3,1.618312E-2],"split_indices":[95,118,134,0,0,0,0],"split_type":[0,0,0,0,0,0,0],"sum_hessian":[1.6190619E4,1.5491372E4,6.9924713E2,3.8329067E3,1.1658465E4,5.9299274E2,1.06254395E2],"tree_param":{"num_deleted":"0","num_feature":"136","num_nodes":"7","size_leaf_vector":"1"}},{"base_weights":[2.0445527E-3,3.0074092E-2,-1.656959E-2,2.1573761E-3,-4.3725604E-3,2.7994087E-3,-1.5571021E-3],"categories":[],"categories_nodes":[],"categories_segments":[],"categories_sizes":[],"default_left":[0,0,0,0,0,0,0],"id":70,"left_children":[1,3,5,-1,-1,-1,-1],"loss_changes":[8.498484E0,1.0006094E1,1.0358656E1,0E0,0E0,0E0,0E0],"parents":[2147483647,0,0,1,1,2,2],"right_children":[2,4,6,-1,-1,-1,-1],"split_conditions":[3E0,5.714286E0,-3.7333333E0,2.1573761E-3,-4.3725604E-3,2.7994087E-3,-1.5571021E-3],"split_indices":[83,53,98,0,0,0,0],"split_type":[0,0,0,0,0,0,0],"sum_hessian":[1.6278775E4,6.4951597E3,9.783616E3,5.847817E3,6.4734265E2,1.6339243E3,8.149692E3],"tree_param":{"num_deleted":"0","num_feature":"136","num_nodes":"7","size_leaf_vector":"1"}},{"base_weights":[3.2241433E-3,7.157655E-2,-3.6035727E-3,4.750108E-3,-8.798341E-3,-2.7182354E-3,5.166437E-4],"categories":[],"categories_nodes":[],"categories_segments":[],"categories_sizes":[],"default_left":[0,0,0,0,0,0,0],"id":71,"left_children":[1,3,5,-1,-1,-1,-1],"loss_changes":[7.5516906E0,8.605279E0,1.0411962E1,0E0,0E0,0E0,0E0],"parents":[2147483647,0,0,1,1,2,2],"right_children":[2,4,6,-1,-1,-1,-1],"split_conditions":[-3.8727272E0,3.86221E0,2.65E1,4.750108E-3,-8.798341E-3,-2.7182354E-3,5.166437E-4],"split_indices":[116,46,9,0,0,0,0],"split_type":[0,0,0,0,0,0,0],"sum_hessian":[1.6173592E4,1.4645486E3,1.4709043E4,1.3407513E3,1.2379729E2,3.165337E3,1.1543706E4],"tree_param":{"num_deleted":"0","num_feature":"136","num_nodes":"7","size_leaf_vector":"1"}},{"base_weights":[-3.5760168E-4,7.3959953E-3,-5.386077E-2,6.7661447E-4,-4.386932E-3,-7.381228E-3,2.335083E-4],"categories":[],"categories_nodes":[],"categories_segments":[],"categories_sizes":[],"default_left":[0,1,0,0,0,0,0],"id":72,"left_children":[1,3,5,-1,-1,-1,-1],"loss_changes":[6.7811747E0,8.340804E0,1.1358551E1,0E0,0E0,0E0,0E0],"parents":[2147483647,0,0,1,1,2,2],"right_children":[2,4,6,-1,-1,-1,-1],"split_conditions":[8.259674E0,8.888194E0,8.367522E0,6.7661447E-4,-4.386932E-3,-7.381228E-3,2.335083E-4],"split_indices":[36,106,114,0,0,0,0],"split_type":[0,0,0,0,0,0,0],"sum_hessian":[1.6336603E4,1.4272555E4,2.0640479E3,1.3411769E4,8.6078595E2,7.903438E2,1.2737041E3],"tree_param":{"num_deleted":"0","num_feature":"136","num_nodes":"7","size_leaf_vector":"1"}},{"base_weights":[1.3421889E-3,2.0399646E-1,-9.880277E-4,5.498787E-3,2.2675049E-2,-1.873335E-4,8.417824E-3],"categories":[],"categories_nodes":[],"categories_segments":[],"categories_sizes":[],"default_left":[0,0,0,0,0,0,0],"id":73,"left_children":[1,3,5,-1,-1,-1,-1],"loss_changes":[7.6328564E0,4.0609736E0,7.4696045E0,0E0,0E0,0E0,0E0],"parents":[2147483647,0,0,1,1,2,2],"right_children":[2,4,6,-1,-1,-1,-1],"split_conditions":[1.2E0,1.5555556E0,5.5E1,5.498787E-3,2.2675049E-2,-1.873335E-4,8.417824E-3],"split_indices":[83,41,112,0,0,0,0],"split_type":[0,0,0,0,0,0,0],"sum_hessian":[1.6156353E4,1.7874263E2,1.5977609E4,1.3505411E2,4.368853E1,1.5726315E4,2.5129419E2],"tree_param":{"num_deleted":"0","num_feature":"136","num_nodes":"7","size_leaf_vector":"1"}},{"base_weights":[2.9710256E-3,7.888542E-3,-1.1567341E-1,1.9272754E-3,-7.266854E-4,6.217731E-3,-9.256075E-3],"categories":[],"categories_nodes":[],"categories_segments":[],"categories_sizes":[],"default_left":[1,0,0,0,0,0,0],"id":74,"left_children":[1,3,5,-1,-1,-1,-1],"loss_changes":[9.518122E0,1.0768709E1,1.0938078E1,0E0,0E0,0E0,0E0],"parents":[2147483647,0,0,1,1,2,2],"right_children":[2,4,6,-1,-1,-1,-1],"split_conditions":[4.8206925E-1,2.4165283E-1,8.802608E-1,1.9272754E-3,-7.266854E-4,6.217731E-3,-9.256075E-3],"split_indices":[123,97,21,0,0,0,0],"split_type":[0,0,0,0,0,0,0],"sum_hessian":[1.6301093E4,1.5656824E4,6.4426874E2,6.6123926E3,9.044432E3,1.4369022E2,5.005785E2],"tree_param":{"num_deleted":"0","num_feature":"136","num_nodes":"7","size_leaf_vector":"1"}},{"base_weights":[-3.6500008E-3,-1.3932471E-2,6.0847282E-2,-4.104846E-4,-7.0728795E-3,1.0147559E-2,1.2654535E-3],"categories":[],"categories_nodes":[],"categories_segments":[],"categories_sizes":[],"default_left":[0,1,0,0,0,0,0],"id":75,"left_children":[1,3,5,-1,-1,-1,-1],"loss_changes":[1.0840593E1,1.0282169E1,1.1325457E1,0E0,0E0,0E0,0E0],"parents":[2147483647,0,0,1,1,2,2],"right_children":[2,4,6,-1,-1,-1,-1],"split_conditions":[3.734226E0,4.620841E-1,1.7320508E0,-4.104846E-4,-7.0728795E-3,1.0147559E-2,1.2654535E-3],"split_indices":[48,123,44,0,0,0,0],"split_type":[0,0,0,0,0,0,0],"sum_hessian":[1.633471E4,1.4092013E4,2.2426973E3,1.3491877E4,6.001356E2,4.4395093E2,1.7987462E3],"tree_param":{"num_deleted":"0","num_feature":"136","num_nodes":"7","size_leaf_vector":"1"}},{"base_weights":[-3.928012E-3,-1.1046731E-1,1.1436506E-3,-3.658997E-3,-2.2482313E-2,1.0163168E-3,-1.5444224E-3],"categories":[],"categories_nodes":[],"categories_segments":[],"categories_sizes":[],"default_left":[0,0,0,0,0,0,0],"id":76,"left_children":[1,3,5,-1,-1,-1,-1],"loss_changes":[8.7949505E0,9.189667E0,9.552584E0,0E0,0E0,0E0,0E0],"parents":[2147483647,0,0,1,1,2,2],"right_children":[2,4,6,-1,-1,-1,-1],"split_conditions":[4.6230345E0,1.7078252E0,5.2E1,-3.658997E-3,-2.2482313E-2,1.0163168E-3,-1.5444224E-3],"split_indices":[106,70,108,0,0,0,0],"split_type":[0,0,0,0,0,0,0],"sum_hessian":[1.6270787E4,7.346319E2,1.5536155E4,6.6734644E2,6.728542E1,9.718175E3,5.817981E3],"tree_param":{"num_deleted":"0","num_feature":"136","num_nodes":"7","size_leaf_vector":"1"}},{"base_weights":[-1.6261489E-3,-8.289228E-3,7.904425E-2,-1.8581391E-4,-6.144414E-3,1.177515E-2,8.9282246E-4],"categories":[],"categories_nodes":[],"categories_segments":[],"categories_sizes":[],"default_left":[0,1,0,0,0,0,0],"id":77,"left_children":[1,3,5,-1,-1,-1,-1],"loss_changes":[8.82143E0,7.9415307E0,1.1966015E1,0E0,0E0,0E0,0E0],"parents":[2147483647,0,0,1,1,2,2],"right_children":[2,4,6,-1,-1,-1,-1],"split_conditions":[4.157991E0,4.8206925E-1,2.5166116E0,-1.8581391E-4,-6.144414E-3,1.177515E-2,8.9282246E-4],"split_indices":[48,123,44,0,0,0,0],"split_type":[0,0,0,0,0,0,0],"sum_hessian":[1.640046E4,1.5153338E4,1.2471239E3,1.4576827E4,5.7651025E2,3.4660416E2,9.005197E2],"tree_param":{"num_deleted":"0","num_feature":"136","num_nodes":"7","size_leaf_vector":"1"}},{"base_weights":[-5.1364736E-3,-2.7104478E-2,2.5023606E-2,1.7890346E-3,-2.4043273E-3,8.640988E-4,1.15209995E-2],"categories":[],"categories_nodes":[],"categories_segments":[],"categories_sizes":[],"default_left":[0,0,0,0,0,0,0],"id":78,"left_children":[1,3,5,-1,-1,-1,-1],"loss_changes":[1.069335E1,1.2328918E1,1.0795999E1,0E0,0E0,0E0,0E0],"parents":[2147483647,0,0,1,1,2,2],"right_children":[2,4,6,-1,-1,-1,-1],"split_conditions":[8.455285E-1,2.7474888E1,4.1952353E0,1.7890346E-3,-2.4043273E-3,8.640988E-4,1.15209995E-2],"split_indices":[92,111,48,0,0,0,0],"split_type":[0,0,0,0,0,0,0],"sum_hessian":[1.6129403E4,9.332385E3,6.797018E3,2.333912E3,6.998473E3,6.5553594E3,2.4165851E2],"tree_param":{"num_deleted":"0","num_feature":"136","num_nodes":"7","size_leaf_vector":"1"}},{"base_weights":[1.6937264E-3,-4.4273473E-2,1.19168125E-2,-5.2050286E-4,-1.018726E-2,7.429737E-4,-1.32427635E-2],"categories":[],"categories_nodes":[],"categories_segments":[],"categories_sizes":[],"default_left":[0,0,0,0,0,0,0],"id":79,"left_children":[1,3,5,-1,-1,-1,-1],"loss_changes":[7.6742716E0,1.60347E1,1.0899839E1,0E0,0E0,0E0,0E0],"parents":[2147483647,0,0,1,1,2,2],"right_children":[2,4,6,-1,-1,-1,-1],"split_conditions":[-1.7917808E0,3.13E1,1.89E2,-5.2050286E-4,-1.018726E-2,7.429737E-4,-1.32427635E-2],"split_indices":[118,86,87,0,0,0,0],"split_type":[0,0,0,0,0,0,0],"sum_hessian":[1.6320173E4,2.9662117E3,1.3353961E4,2.4510613E3,5.151503E2,1.3218156E4,1.3580487E2],"tree_param":{"num_deleted":"0","num_feature":"136","num_nodes":"7","size_leaf_vector":"1"}},{"base_weights":[9.324473E-5,1.5861057E-2,-3.456025E-2,5.1362667E-4,8.955452E-3,-3.9574644E-3,8.6251285E-4],"categories":[],"categories_nodes":[],"categories_segments":[],"categories_sizes":[],"default_left":[0,0,1,0,0,0,0],"id":80,"left_children":[1,3,5,-1,-1,-1,-1],"loss_changes":[8.82187E0,1.011403E1,1.1670778E1,0E0,0E0,0E0,0E0],"parents":[2147483647,0,0,1,1,2,2],"right_children":[2,4,6,-1,-1,-1,-1],"split_conditions":[3.16E1,4.72464E0,7.2030954E0,5.1362667E-4,8.955452E-3,-3.9574644E-3,8.6251285E-4],"split_indices":[86,54,114,0,0,0,0],"split_type":[0,0,0,0,0,0,0],"sum_hessian":[1.6135136E4,1.10912E4,5.0439355E3,1.0729218E4,3.6198233E2,2.7094753E3,2.3344604E3],"tree_param":{"num_deleted":"0","num_feature":"136","num_nodes":"7","size_leaf_vector":"1"}},{"base_weights":[5.5183466E-3,-6.0554235E-3,5.7577267E-2,-1.8651474E-2,-2.0531022E-4,-1.689282E-2,3.3118916E-3],"categories":[],"categories_nodes":[],"categories_segments":[],"categories_sizes":[],"default_left":[0,0,0,0,0,0,0],"id":81,"left_children":[1,3,5,-1,-1,-1,-1],"loss_changes":[9.799713E0,9.51207E0,1.0242847E1,0E0,0E0,0E0,0E0],"parents":[2147483647,0,0,1,1,2,2],"right_children":[2,4,6,-1,-1,-1,-1],"split_conditions":[1.2E0,-5.8E0,1E0,-1.8651474E-2,-2.0531022E-4,-1.689282E-2,3.3118916E-3],"split_indices":[63,126,39,0,0,0,0],"split_type":[0,0,0,0,0,0,0],"sum_hessian":[1.6256705E4,1.3303485E4,2.9532202E3,6.5260185E1,1.3238225E4,5.9220284E1,2.894E3],"tree_param":{"num_deleted":"0","num_feature":"136","num_nodes":"7","size_leaf_vector":"1"}},{"base_weights":[-1.0495867E-3,2.4412116E-1,-3.0615362E-3,2.085508E-2,-1.5895723E-3,3.922175E-4,-2.5006765E-3],"categories":[],"categories_nodes":[],"categories_segments":[],"categories_sizes":[],"default_left":[0,0,0,0,0,0,0],"id":82,"left_children":[1,3,5,-1,-1,-1,-1],"loss_changes":[8.06069E0,6.414564E0,8.300145E0,0E0,0E0,0E0,0E0],"parents":[2147483647,0,0,1,1,2,2],"right_children":[2,4,6,-1,-1,-1,-1],"split_conditions":[-7.8E0,2.4E0,6.6E1,2.085508E-2,-1.5895723E-3,3.922175E-4,-2.5006765E-3],"split_indices":[116,94,104,0,0,0,0],"split_type":[0,0,0,0,0,0,0],"sum_hessian":[1.632872E4,1.2801064E2,1.6200709E4,7.7109245E1,5.090139E1,1.3150346E4,3.0503633E3],"tree_param":{"num_deleted":"0","num_feature":"136","num_nodes":"7","size_leaf_vector":"1"}},{"base_weights":[3.5664414E-3,-4.2882166E-3,6.744563E-2,2.0880159E-4,-4.33251E-3,-2.9356766E-3,6.7169294E-3],"categories":[],"categories_nodes":[],"categories_segments":[],"categories_sizes":[],"default_left":[0,0,0,0,0,0,0],"id":83,"left_children":[1,3,5,-1,-1,-1,-1],"loss_changes":[8.236119E0,1.0193584E1,1.5207642E1,0E0,0E0,0E0,0E0],"parents":[2147483647,0,0,1,1,2,2],"right_children":[2,4,6,-1,-1,-1,-1],"split_conditions":[2.2277777E0,2.4376866E-1,2.26E1,2.0880159E-4,-4.33251E-3,-2.9356766E-3,6.7169294E-3],"split_indices":[126,127,35,0,0,0,0],"split_type":[0,0,0,0,0,0,0],"sum_hessian":[1.6406932E4,1.4614571E4,1.79236E3,1.3256919E4,1.3576522E3,6.2126825E2,1.1710917E3],"tree_param":{"num_deleted":"0","num_feature":"136","num_nodes":"7","size_leaf_vector":"1"}},{"base_weights":[3.832205E-3,6.2242383E-3,-2.1919054E-1,-1.5318719E-2,3.937437E-4,1.1408818E-2,-1.6454184E-2],"categories":[],"categories_nodes":[],"categories_segments":[],"categories_sizes":[],"default_left":[0,0,0,0,0,0,0],"id":84,"left_children":[1,3,5,-1,-1,-1,-1],"loss_changes":[8.672773E0,8.307445E0,8.8568325E0,0E0,0E0,0E0,0E0],"parents":[2147483647,0,0,1,1,2,2],"right_children":[2,4,6,-1,-1,-1,-1],"split_conditions":[1E1,-5.8E0,2.6666667E0,-1.5318719E-2,3.937437E-4,1.1408818E-2,-1.6454184E-2],"split_indices":[49,126,83,0,0,0,0],"split_type":[0,0,0,0,0,0,0],"sum_hessian":[1.6239258E4,1.6071741E4,1.6751721E2,7.957051E1,1.5992171E4,3.1973545E1,1.3554367E2],"tree_param":{"num_deleted":"0","num_feature":"136","num_nodes":"7","size_leaf_vector":"1"}},{"base_weights":[-1.5010636E-3,4.287669E-3,-8.098842E-2,6.827369E-4,-3.0759233E-3,-8.353218E-3,4.471565E-3],"categories":[],"categories_nodes":[],"categories_segments":[],"categories_sizes":[],"default_left":[0,0,0,0,0,0,0],"id":85,"left_children":[1,3,5,-1,-1,-1,-1],"loss_changes":[7.4896426E0,9.357302E0,1.628293E1,0E0,0E0,0E0,0E0],"parents":[2147483647,0,0,1,1,2,2],"right_children":[2,4,6,-1,-1,-1,-1],"split_conditions":[9.054054E-1,8.259674E0,7.800032E-2,6.827369E-4,-3.0759233E-3,-8.353218E-3,4.471565E-3],"split_indices":[92,36,117,0,0,0,0],"split_type":[0,0,0,0,0,0,0],"sum_hessian":[1.626842E4,1.5168492E4,1.0999276E3,1.3281868E4,1.8866238E3,7.308745E2,3.6905316E2],"tree_param":{"num_deleted":"0","num_feature":"136","num_nodes":"7","size_leaf_vector":"1"}},{"base_weights":[-2.1408818E-4,5.4356083E-3,-8.680941E-2,-1.0958964E-3,1.2176215E-3,-6.0722847E-3,1.5695777E-2],"categories":[],"categories_nodes":[],"categories_segments":[],"categories_sizes":[],"default_left":[0,0,0,0,0,0,0],"id":86,"left_children":[1,3,5,-1,-1,-1,-1],"loss_changes":[7.986911E0,7.9327474E0,1.4068361E1,0E0,0E0,0E0,0E0],"parents":[2147483647,0,0,1,1,2,2],"right_children":[2,4,6,-1,-1,-1,-1],"split_conditions":[7.7E1,2.12E1,9.723396E0,-1.0958964E-3,1.2176215E-3,-6.0722847E-3,1.5695777E-2],"split_indices":[104,29,12,0,0,0,0],"split_type":[0,0,0,0,0,0,0],"sum_hessian":[1.6315408E4,1.5320543E4,9.948646E2,6.2632104E3,9.057333E3,9.1892303E2,7.5941574E1],"tree_param":{"num_deleted":"0","num_feature":"136","num_nodes":"7","size_leaf_vector":"1"}},{"base_weights":[-5.9240735E-3,-3.1782847E-2,1.1868589E-2,-2.0363245E-2,-1.370137E-3,4.4413162E-3,-1.494613E-4],"categories":[],"categories_nodes":[],"categories_segments":[],"categories_sizes":[],"default_left":[0,0,0,0,0,0,0],"id":87,"left_children":[1,3,5,-1,-1,-1,-1],"loss_changes":[7.4894967E0,1.085608E1,1.1028774E1,0E0,0E0,0E0,0E0],"parents":[2147483647,0,0,1,1,2,2],"right_children":[2,4,6,-1,-1,-1,-1],"split_conditions":[5.700877E0,-6.359933E-2,2.25E0,-2.0363245E-2,-1.370137E-3,4.4413162E-3,-1.494613E-4],"split_indices":[10,101,79,0,0,0,0],"split_type":[0,0,0,0,0,0,0],"sum_hessian":[1.6269003E4,6.629769E3,9.639234E3,7.114336E1,6.5586255E3,1.555816E3,8.083418E3],"tree_param":{"num_deleted":"0","num_feature":"136","num_nodes":"7","size_leaf_vector":"1"}},{"base_weights":[-3.4207704E-3,-4.833166E-3,3.2934123E-1,-9.623984E-5,-8.574306E-3,2.9976878E-2,-5.9800805E-4],"categories":[],"categories_nodes":[],"categories_segments":[],"categories_sizes":[],"default_left":[1,1,0,0,0,0,0],"id":88,"left_children":[1,3,5,-1,-1,-1,-1],"loss_changes":[7.650063E0,7.8485026E0,6.3801045E0,0E0,0E0,0E0,0E0],"parents":[2147483647,0,0,1,1,2,2],"right_children":[2,4,6,-1,-1,-1,-1],"split_conditions":[8.707692E0,4.5666666E0,9.1868865E-1,-9.623984E-5,-8.574306E-3,2.9976878E-2,-5.9800805E-4],"split_indices":[116,122,19,0,0,0,0],"split_type":[0,0,0,0,0,0,0],"sum_hessian":[1.6255088E4,1.6191292E4,6.379594E1,1.5918545E4,2.7274713E2,3.3495564E1,3.0300375E1],"tree_param":{"num_deleted":"0","num_feature":"136","num_nodes":"7","size_leaf_vector":"1"}},{"base_weights":[-3.9966754E-3,-8.29425E-3,1.06216155E-1,-7.619654E-4,2.9523754E-3,-1.8133681E-2,6.672022E-3],"categories":[],"categories_nodes":[],"categories_segments":[],"categories_sizes":[],"default_left":[0,0,1,0,0,0,0],"id":89,"left_children":[1,3,5,-1,-1,-1,-1],"loss_changes":[7.765816E0,7.382868E0,8.096979E0,0E0,0E0,0E0,0E0],"parents":[2147483647,0,0,1,1,2,2],"right_children":[2,4,6,-1,-1,-1,-1],"split_conditions":[7.5E0,2.2902439E0,-1.4142857E0,-7.619654E-4,2.9523754E-3,-1.8133681E-2,6.672022E-3],"split_indices":[95,126,126,0,0,0,0],"split_type":[0,0,0,0,0,0,0],"sum_hessian":[1.6381459E4,1.5771113E4,6.1034576E2,1.4300183E4,1.470931E3,3.011198E1,5.802338E2],"tree_param":{"num_deleted":"0","num_feature":"136","num_nodes":"7","size_leaf_vector":"1"}},{"base_weights":[-5.025763E-3,7.2805375E-2,-1.2338787E-2,1.4113539E-3,1.1771828E-2,7.5097084E-3,-7.7193213E-4],"categories":[],"categories_nodes":[],"categories_segments":[],"categories_sizes":[],"default_left":[0,0,0,0,0,0,0],"id":90,"left_children":[1,3,5,-1,-1,-1,-1],"loss_changes":[9.363036E0,1.0210314E1,7.5862474E0,0E0,0E0,0E0,0E0],"parents":[2147483647,0,0,1,1,2,2],"right_children":[2,4,6,-1,-1,-1,-1],"split_conditions":[-4.8333335E0,1.2E0,-9.182802E-1,1.4113539E-3,1.1771828E-2,7.5097084E-3,-7.7193213E-4],"split_indices":[98,69,121,0,0,0,0],"split_type":[0,0,0,0,0,0,0],"sum_hessian":[1.6437125E4,1.4079371E3,1.50291875E4,1.109644E3,2.9829306E2,2.768342E2,1.4752353E4],"tree_param":{"num_deleted":"0","num_feature":"136","num_nodes":"7","size_leaf_vector":"1"}},{"base_weights":[1.3708237E-4,-1.3908669E-2,3.3940356E-2,5.097352E-3,-1.1937412E-3,2.4070845E-3,-6.4143264E-3],"categories":[],"categories_nodes":[],"categories_segments":[],"categories_sizes":[],"default_left":[0,0,0,0,0,0,0],"id":91,"left_children":[1,3,5,-1,-1,-1,-1],"loss_changes":[7.7082243E0,1.3255056E1,1.10101595E1,0E0,0E0,0E0,0E0],"parents":[2147483647,0,0,1,1,2,2],"right_children":[2,4,6,-1,-1,-1,-1],"split_conditions":[4.472136E-1,-6.4E0,2.9E1,5.097352E-3,-1.1937412E-3,2.4070845E-3,-6.4143264E-3],"split_indices":[76,102,33,0,0,0,0],"split_type":[0,0,0,0,0,0,0],"sum_hessian":[1.6224966E4,1.1464317E4,4.760648E3,9.044156E2,1.0559901E4,4.3806797E3,3.7996826E2],"tree_param":{"num_deleted":"0","num_feature":"136","num_nodes":"7","size_leaf_vector":"1"}},{"base_weights":[4.1011986E-3,-7.282214E-2,1.1241109E-2,-2.1032952E-3,-1.4463154E-2,9.059893E-4,-3.3021315E-3],"categories":[],"categories_nodes":[],"categories_segments":[],"categories_sizes":[],"default_left":[0,0,0,0,0,0,0],"id":92,"left_children":[1,3,5,-1,-1,-1,-1],"loss_changes":[8.900657E0,9.1022415E0,7.8881087E0,0E0,0E0,0E0,0E0],"parents":[2147483647,0,0,1,1,2,2],"right_children":[2,4,6,-1,-1,-1,-1],"split_conditions":[-3.0064516E0,5.242424E-1,1.0333333E0,-2.1032952E-3,-1.4463154E-2,9.059893E-4,-3.3021315E-3],"split_indices":[118,121,100,0,0,0,0],"split_type":[0,0,0,0,0,0,0],"sum_hessian":[1.6193374E4,1.3714773E3,1.4821896E4,1.206067E3,1.6541023E2,1.3614004E4,1.2078932E3],"tree_param":{"num_deleted":"0","num_feature":"136","num_nodes":"7","size_leaf_vector":"1"}},{"base_weights":[-4.4437386E-3,7.234832E-2,-1.1838853E-2,4.712868E-3,-1.3091615E-2,-9.5247244E-4,3.4504016E-3],"categories":[],"categories_nodes":[],"categories_segments":[],"categories_sizes":[],"default_left":[0,0,0,0,0,0,0],"id":93,"left_children":[1,3,5,-1,-1,-1,-1],"loss_changes":[9.173749E0,1.0513066E1,8.595012E0,0E0,0E0,0E0,0E0],"parents":[2147483647,0,0,1,1,2,2],"right_children":[2,4,6,-1,-1,-1,-1],"split_conditions":[-4.8333335E0,4.5875E0,9.302326E-1,4.712868E-3,-1.3091615E-2,-9.5247244E-4,3.4504016E-3],"split_indices":[98,116,91,0,0,0,0],"split_type":[0,0,0,0,0,0,0],"sum_hessian":[1.6141664E4,1.414048E3,1.4727616E4,1.330415E3,8.3632935E1,1.3525152E4,1.2024633E3],"tree_param":{"num_deleted":"0","num_feature":"136","num_nodes":"7","size_leaf_vector":"1"}},{"base_weights":[4.7686934E-3,-2.829396E-2,2.4679864E-2,-1.0397835E-3,-1.2672804E-2,4.681261E-4,6.0974E-3],"categories":[],"categories_nodes":[],"categories_segments":[],"categories_sizes":[],"default_left":[0,1,0,0,0,0,0],"id":94,"left_children":[1,3,5,-1,-1,-1,-1],"loss_changes":[1.073615E1,1.0323423E1,1.5158409E1,0E0,0E0,0E0,0E0],"parents":[2147483647,0,0,1,1,2,2],"right_children":[2,4,6,-1,-1,-1,-1],"split_conditions":[-1.3E0,3.5E1,3.4756997E-1,-1.0397835E-3,-1.2672804E-2,4.681261E-4,6.0974E-3],"split_indices":[95,111,125,0,0,0,0],"split_type":[0,0,0,0,0,0,0],"sum_hessian":[1.6298198E4,6.1251816E3,1.0173017E4,5.933062E3,1.9211949E2,8.793705E3,1.3793113E3],"tree_param":{"num_deleted":"0","num_feature":"136","num_nodes":"7","size_leaf_vector":"1"}},{"base_weights":[4.0784082E-3,-2.8568698E-4,1.1770185E-1,-8.513743E-5,1.3991754E-2,3.7795708E-3,1.7045677E-2],"categories":[],"categories_nodes":[],"categories_segments":[],"categories_sizes":[],"default_left":[0,0,0,0,0,0,0],"id":95,"left_children":[1,3,5,-1,-1,-1,-1],"loss_changes":[8.064142E0,6.22096E0,5.5252113E0,0E0,0E0,0E0,0E0],"parents":[2147483647,0,0,1,1,2,2],"right_children":[2,4,6,-1,-1,-1,-1],"split_conditions":[7.5E0,4.2E0,5.416667E-1,-8.513743E-5,1.3991754E-2,3.7795708E-3,1.7045677E-2],"split_indices":[95,39,100,0,0,0,0],"split_type":[0,0,0,0,0,0,0],"sum_hessian":[1.6257486E4,1.5660961E4,5.9652515E2,1.558708E4,7.388156E1,5.0747894E2,8.9046165E1],"tree_param":{"num_deleted":"0","num_feature":"136","num_nodes":"7","size_leaf_vector":"1"}},{"base_weights":[5.760813E-3,5.1083386E-2,-4.2821127E-3,9.0254826E-4,8.330435E-3,-3.6347322E-3,3.409977E-4],"categories":[],"categories_nodes":[],"categories_segments":[],"categories_sizes":[],"default_left":[0,0,0,0,0,0,0],"id":96,"left_children":[1,3,5,-1,-1,-1,-1],"loss_changes":[7.400164E0,1.12387295E1,1.0112866E1,0E0,0E0,0E0,0E0],"parents":[2147483647,0,0,1,1,2,2],"right_children":[2,4,6,-1,-1,-1,-1],"split_conditions":[-3.2666667E0,1E0,-1.7917808E0,9.0254826E-4,8.330435E-3,-3.6347322E-3,3.409977E-4],"split_indices":[99,65,118,0,0,0,0],"split_type":[0,0,0,0,0,0,0],"sum_hessian":[1.6250576E4,2.944038E3,1.3306538E4,2.2939148E3,6.501232E2,1.8540258E3,1.1452513E4],"tree_param":{"num_deleted":"0","num_feature":"136","num_nodes":"7","size_leaf_vector":"1"}},{"base_weights":[5.0704246E-5,5.365078E-3,-1.3062082E-1,5.092228E-4,-4.987134E-3,-1.322629E-2,1.7359402E-3],"categories":[],"categories_nodes":[],"categories_segments":[],"categories_sizes":[],"default_left":[1,0,0,0,0,0,0],"id":97,"left_children":[1,3,5,-1,-1,-1,-1],"loss_changes":[1.1354066E1,7.9635563E0,1.4192462E1,0E0,0E0,0E0,0E0],"parents":[2147483647,0,0,1,1,2,2],"right_children":[2,4,6,-1,-1,-1,-1],"split_conditions":[4.8206925E-1,2.1679482E0,6.1073728E0,5.092228E-4,-4.987134E-3,-1.322629E-2,1.7359402E-3],"split_indices":[123,40,4,0,0,0,0],"split_type":[0,0,0,0,0,0,0],"sum_hessian":[1.6339979E4,1.5706014E4,6.339644E2,1.5021756E4,6.8425867E2,3.4862286E2,2.8534155E2],"tree_param":{"num_deleted":"0","num_feature":"136","num_nodes":"7","size_leaf_vector":"1"}},{"base_weights":[1.1363896E-3,-2.179183E-2,2.518498E-2,1.7323709E-4,-4.2835E-3,7.2016637E-3,7.5271906E-4],"categories":[],"categories_nodes":[],"categories_segments":[],"categories_sizes":[],"default_left":[0,0,0,0,0,0,0],"id":98,"left_children":[1,3,5,-1,-1,-1,-1],"loss_changes":[8.805586E0,1.3191288E1,9.373571E0,0E0,0E0,0E0,0E0],"parents":[2147483647,0,0,1,1,2,2],"right_children":[2,4,6,-1,-1,-1,-1],"split_conditions":[1E0,5.8E1,2.3E0,1.7323709E-4,-4.2835E-3,7.2016637E-3,7.5271906E-4],"split_indices":[0,108,81,0,0,0,0],"split_type":[0,0,0,0,0,0,0],"sum_hessian":[1.595978E4,8.1704463E3,7.7893345E3,5.858717E3,2.3117295E3,6.066195E2,7.182715E3],"tree_param":{"num_deleted":"0","num_feature":"136","num_nodes":"7","size_leaf_vector":"1"}},{"base_weights":[-4.5893533E-4,4.2606737E-2,-1.1049547E-2,3.422172E-4,7.4706683E-3,-4.4205445E-3,-8.0063884E-8],"categories":[],"categories_nodes":[],"categories_segments":[],"categories_sizes":[],"default_left":[0,0,1,0,0,0,0],"id":99,"left_children":[1,3,5,-1,-1,-1,-1],"loss_changes":[7.4287896E0,1.2274721E1,1.1173166E1,0E0,0E0,0E0,0E0],"parents":[2147483647,0,0,1,1,2,2],"right_children":[2,4,6,-1,-1,-1,-1],"split_conditions":[1.1547005E0,4.625E0,-2.463158E0,3.422172E-4,7.4706683E-3,-4.4205445E-3,-8.0063884E-8],"split_indices":[44,53,118,0,0,0,0],"split_type":[0,0,0,0,0,0,0],"sum_hessian":[1.6277764E4,3.2099019E3,1.3067862E4,2.4087073E3,8.0119446E2,1.6286322E3,1.14392295E4],"tree_param":{"num_deleted":"0","num_feature":"136","num_nodes":"7","size_leaf_vector":"1"}},{"base_weights":[-2.7565353E-3,-1.3041718E-1,2.2992734E-5,-1.1088375E-2,6.9035105E-3,2.19693E-3,-4.2386437E-4],"categories":[],"categories_nodes":[],"categories_segments":[],"categories_sizes":[],"default_left":[0,0,0,0,0,0,0],"id":100,"left_children":[1,3,5,-1,-1,-1,-1],"loss_changes":[5.742279E0,8.61075E0,5.915978E0,0E0,0E0,0E0,0E0],"parents":[2147483647,0,0,1,1,2,2],"right_children":[2,4,6,-1,-1,-1,-1],"split_conditions":[-4.2E0,8.1670065E0,2.25E0,-1.1088375E-2,6.9035105E-3,2.19693E-3,-4.2386437E-4],"split_indices":[126,4,79,0,0,0,0],"split_type":[0,0,0,0,0,0,0],"sum_hessian":[1.6177851E4,3.3983856E2,1.5838012E4,2.5421451E2,8.562405E1,2.5650686E3,1.3272943E4],"tree_param":{"num_deleted":"0","num_feature":"136","num_nodes":"7","size_leaf_vector":"1"}},{"base_weights":[2.469094E-3,-7.816767E-4,1.6115847E-1,8.70434E-3,-1.79922E-4,1.1524825E-2,-1.2176211E-2],"categories":[],"categories_nodes":[],"categories_segments":[],"categories_sizes":[],"default_left":[0,0,0,0,0,0,0],"id":101,"left_children":[1,3,5,-1,-1,-1,-1],"loss_changes":[8.33643E0,7.8051105E0,9.383212E0,0E0,0E0,0E0,0E0],"parents":[2147483647,0,0,1,1,2,2],"right_children":[2,4,6,-1,-1,-1,-1],"split_conditions":[1.7320508E0,-3.7333333E0,3.8872522E-1,8.70434E-3,-1.79922E-4,1.1524825E-2,-1.2176211E-2],"split_indices":[56,124,121,0,0,0,0],"split_type":[0,0,0,0,0,0,0],"sum_hessian":[1.6153948E4,1.5834551E4,3.1939728E2,2.4619846E2,1.5588353E4,2.7451434E2,4.4882942E1],"tree_param":{"num_deleted":"0","num_feature":"136","num_nodes":"7","size_leaf_vector":"1"}},{"base_weights":[2.6204078E-3,-2.922244E-2,2.2366052E-2,5.439496E-4,-3.6722198E-3,4.7704444E-4,5.665617E-3],"categories":[],"categories_nodes":[],"categories_segments":[],"categories_sizes":[],"default_left":[0,1,1,0,0,0,0],"id":102,"left_children":[1,3,5,-1,-1,-1,-1],"loss_changes":[1.01895075E1,1.1004147E1,1.1661633E1,0E0,0E0,0E0,0E0],"parents":[2147483647,0,0,1,1,2,2],"right_children":[2,4,6,-1,-1,-1,-1],"split_conditions":[-1.3E0,2.8176395E1,2.2275863E0,5.439496E-4,-3.6722198E-3,4.7704444E-4,5.665617E-3],"split_indices":[95,111,124,0,0,0,0],"split_type":[0,0,0,0,0,0,0],"sum_hessian":[1.6195584E4,6.197988E3,9.997596E3,3.2524055E3,2.9455825E3,8.76683E3,1.230766E3],"tree_param":{"num_deleted":"0","num_feature":"136","num_nodes":"7","size_leaf_vector":"1"}},{"base_weights":[1.3240244E-3,1.7451646E-2,-2.8825166E-2,-1.9382006E-3,1.6146101E-3,6.916545E-3,-2.029013E-3],"categories":[],"categories_nodes":[],"categories_segments":[],"categories_sizes":[],"default_left":[0,0,0,0,0,0,0],"id":103,"left_children":[1,3,5,-1,-1,-1,-1],"loss_changes":[7.8651605E0,8.797917E0,1.1105091E1,0E0,0E0,0E0,0E0],"parents":[2147483647,0,0,1,1,2,2],"right_children":[2,4,6,-1,-1,-1,-1],"split_conditions":[4.2E0,2.2E0,2.2E0,-1.9382006E-3,1.6146101E-3,6.916545E-3,-2.029013E-3],"split_indices":[45,45,85,0,0,0,0],"split_type":[0,0,0,0,0,0,0],"sum_hessian":[1.6165474E4,1.0533125E4,5.6323486E3,2.198229E3,8.3348955E3,3.6652777E2,5.2658213E3],"tree_param":{"num_deleted":"0","num_feature":"136","num_nodes":"7","size_leaf_vector":"1"}},{"base_weights":[-2.513746E-3,-1.471775E-1,2.8070065E-4,1.9633807E-3,-1.52869E-2,1.8653095E-4,-6.2473095E-3],"categories":[],"categories_nodes":[],"categories_segments":[],"categories_sizes":[],"default_left":[0,0,1,0,0,0,0],"id":104,"left_children":[1,3,5,-1,-1,-1,-1],"loss_changes":[6.5779977E0,9.176163E0,6.900873E0,0E0,0E0,0E0,0E0],"parents":[2147483647,0,0,1,1,2,2],"right_children":[2,4,6,-1,-1,-1,-1],"split_conditions":[-4.2E0,-7.115803E-1,5.9604985E-1,1.9633807E-3,-1.52869E-2,1.8653095E-4,-6.2473095E-3],"split_indices":[126,127,123,0,0,0,0],"split_type":[0,0,0,0,0,0,0],"sum_hessian":[1.6266383E4,3.0336478E2,1.5963018E4,1.4115172E2,1.6221306E2,1.5539759E4,4.2325906E2],"tree_param":{"num_deleted":"0","num_feature":"136","num_nodes":"7","size_leaf_vector":"1"}},{"base_weights":[-1.2005905E-3,1.5504014E-2,-3.4656256E-2,6.3865836E-4,1.4333795E-2,-1.9065021E-3,2.312543E-2],"categories":[],"categories_nodes":[],"categories_segments":[],"categories_sizes":[],"default_left":[1,0,0,0,0,0,0],"id":105,"left_children":[1,3,5,-1,-1,-1,-1],"loss_changes":[9.102187E0,8.026241E0,9.455499E0,0E0,0E0,0E0,0E0],"parents":[2147483647,0,0,1,1,2,2],"right_children":[2,4,6,-1,-1,-1,-1],"split_conditions":[3.074074E1,5.7E1,9.257951E-1,6.3865836E-4,1.4333795E-2,-1.9065021E-3,2.312543E-2],"split_indices":[115,112,93,0,0,0,0],"split_type":[0,0,0,0,0,0,0],"sum_hessian":[1.6277147E4,1.0858246E4,5.4189014E3,1.0755172E4,1.03074875E2,5.3858857E3,3.30157E1],"tree_param":{"num_deleted":"0","num_feature":"136","num_nodes":"7","size_leaf_vector":"1"}},{"base_weights":[-3.4811557E-4,-1.7889617E-1,2.6224065E-3,-4.3657855E-3,-2.6091347E-2,1.5581299E-3,-8.541324E-4],"categories":[],"categories_nodes":[],"categories_segments":[],"categories_sizes":[],"default_left":[0,0,0,0,0,0,0],"id":106,"left_children":[1,3,5,-1,-1,-1,-1],"loss_changes":[8.532432E0,8.040281E0,8.902238E0,0E0,0E0,0E0,0E0],"parents":[2147483647,0,0,1,1,2,2],"right_children":[2,4,6,-1,-1,-1,-1],"split_conditions":[-4.4169016E0,8.5440035E0,3E0,-4.3657855E-3,-2.6091347E-2,1.5581299E-3,-8.541324E-4],"split_indices":[126,8,79,0,0,0,0],"split_type":[0,0,0,0,0,0,0],"sum_hessian":[1.6077942E4,2.5826697E2,1.5819676E4,2.0878384E2,4.948313E1,6.4601245E3,9.359552E3],"tree_param":{"num_deleted":"0","num_feature":"136","num_nodes":"7","size_leaf_vector":"1"}},{"base_weights":[-3.5895281E-3,1.0769122E-3,-8.632854E-2,-2.547033E-4,3.5464638E-3,-1.5850637E-2,9.552057E-5],"categories":[],"categories_nodes":[],"categories_segments":[],"categories_sizes":[],"default_left":[0,0,0,0,0,0,0],"id":107,"left_children":[1,3,5,-1,-1,-1,-1],"loss_changes":[6.184513E0,6.539509E0,1.7410408E1,0E0,0E0,0E0,0E0],"parents":[2147483647,0,0,1,1,2,2],"right_children":[2,4,6,-1,-1,-1,-1],"split_conditions":[9.104478E-1,9.302326E-1,2.79E1,-2.547033E-4,3.5464638E-3,-1.5850637E-2,9.552057E-5],"split_indices":[92,91,82,0,0,0,0],"split_type":[0,0,0,0,0,0,0],"sum_hessian":[1.6011838E4,1.5161662E4,8.501755E2,1.3935217E4,1.2264457E3,2.3163802E2,6.185375E2],"tree_param":{"num_deleted":"0","num_feature":"136","num_nodes":"7","size_leaf_vector":"1"}},{"base_weights":[-3.0512519E-3,-1.307844E-2,4.0206052E-2,-3.915158E-3,-9.8621065E-5,9.361477E-3,9.41482E-4],"categories":[],"categories_nodes":[],"categories_segments":[],"categories_sizes":[],"default_left":[0,0,0,0,0,0,0],"id":108,"left_children":[1,3,5,-1,-1,-1,-1],"loss_changes":[7.05789E0,9.567372E0,9.606213E0,0E0,0E0,0E0,0E0],"parents":[2147483647,0,0,1,1,2,2],"right_children":[2,4,6,-1,-1,-1,-1],"split_conditions":[1.2E0,5.141741E0,-3.8E0,-3.915158E-3,-9.8621065E-5,9.361477E-3,9.41482E-4],"split_indices":[63,114,98,0,0,0,0],"split_type":[0,0,0,0,0,0,0],"sum_hessian":[1.6260762E4,1.3203609E4,3.0571526E3,1.9167056E3,1.1286903E4,3.831457E2,2.6740068E3],"tree_param":{"num_deleted":"0","num_feature":"136","num_nodes":"7","size_leaf_vector":"1"}},{"base_weights":[-1.8683441E-3,2.200454E-2,-2.0748105E-2,3.9431434E-5,4.65917E-3,-4.658179E-4,-5.9498097E-3],"categories":[],"categories_nodes":[],"categories_segments":[],"categories_sizes":[],"default_left":[0,0,0,0,0,0,0],"id":109,"left_children":[1,3,5,-1,-1,-1,-1],"loss_changes":[7.304116E0,1.0807099E1,1.0157708E1,0E0,0E0,0E0,0E0],"parents":[2147483647,0,0,1,1,2,2],"right_children":[2,4,6,-1,-1,-1,-1],"split_conditions":[2.439269E-1,6.363961E0,1.8929695E0,3.9431434E-5,4.65917E-3,-4.658179E-4,-5.9498097E-3],"split_indices":[97,32,40,0,0,0,0],"split_type":[0,0,0,0,0,0,0],"sum_hessian":[1.6195579E4,7.1516753E3,9.043903E3,5.513385E3,1.6382905E3,8.1061763E3,9.3772736E2],"tree_param":{"num_deleted":"0","num_feature":"136","num_nodes":"7","size_leaf_vector":"1"}},{"base_weights":[-3.930071E-3,6.2383056E-2,-1.3495466E-2,1.285364E-2,1.7100334E-3,-2.076662E-3,3.5886862E-4],"categories":[],"categories_nodes":[],"categories_segments":[],"categories_sizes":[],"default_left":[0,0,0,0,0,0,0],"id":110,"left_children":[1,3,5,-1,-1,-1,-1],"loss_changes":[1.025525E1,1.1139082E1,8.190215E0,0E0,0E0,0E0,0E0],"parents":[2147483647,0,0,1,1,2,2],"right_children":[2,4,6,-1,-1,-1,-1],"split_conditions":[7.798165E-1,2.7568628E1,2.94E1,1.285364E-2,1.7100334E-3,-2.076662E-3,3.5886862E-4],"split_indices":[93,109,82,0,0,0,0],"split_type":[0,0,0,0,0,0,0],"sum_hessian":[1.6155899E4,2.033164E3,1.4122736E4,2.5196045E2,1.7812035E3,5.9915635E3,8.1311724E3],"tree_param":{"num_deleted":"0","num_feature":"136","num_nodes":"7","size_leaf_vector":"1"}},{"base_weights":[1.8027745E-3,4.026737E-4,1.7823273E-2,8.757261E-5,-1.6942784E-2],"categories":[],"categories_nodes":[],"categories_segments":[],"categories_sizes":[],"default_left":[1,1,0,0,0],"id":111,"left_children":[1,3,-1,-1,-1],"loss_changes":[8.027679E0,7.374352E0,0E0,0E0,0E0],"parents":[2147483647,0,0,1,1],"right_children":[2,4,-1,-1,-1],"split_conditions":[8.707692E0,3.975E1,1.7823273E-2,8.757261E-5,-1.6942784E-2],"split_indices":[116,109,0,0,0],"split_type":[0,0,0,0,0],"sum_hessian":[1.6162915E4,1.6104346E4,5.8569397E1,1.6045527E4,5.8817497E1],"tree_param":{"num_deleted":"0","num_feature":"136","num_nodes":"5","size_leaf_vector":"1"}},{"base_weights":[4.2673773E-3,-6.0691573E-2,1.452758E-2,-2.392669E-3,-2.3192573E-2,3.0678262E-3,4.4619406E-5],"categories":[],"categories_nodes":[],"categories_segments":[],"categories_sizes":[],"default_left":[0,0,0,0,0,0,0],"id":112,"left_children":[1,3,5,-1,-1,-1,-1],"loss_changes":[1.089424E1,1.1429472E1,9.012045E0,0E0,0E0,0E0,0E0],"parents":[2147483647,0,0,1,1,2,2],"right_children":[2,4,6,-1,-1,-1,-1],"split_conditions":[2.2E0,1.3E0,2.5E0,-2.392669E-3,-2.3192573E-2,3.0678262E-3,4.4619406E-5],"split_indices":[45,100,79,0,0,0,0],"split_type":[0,0,0,0,0,0,0],"sum_hessian":[1.6334028E4,2.2246765E3,1.4109353E4,2.1614412E3,6.3235287E1,3.1778362E3,1.0931516E4],"tree_param":{"num_deleted":"0","num_feature":"136","num_nodes":"7","size_leaf_vector":"1"}},{"base_weights":[-4.5850084E-4,7.6447832E-3,-5.428465E-2,1.0568916E-3,-1.4203397E-3,-8.427129E-3,-3.990139E-4],"categories":[],"categories_nodes":[],"categories_segments":[],"categories_sizes":[],"default_left":[0,0,1,0,0,0,0],"id":113,"left_children":[1,3,5,-1,-1,-1,-1],"loss_changes":[7.08325E0,6.8692E0,1.1235426E1,0E0,0E0,0E0,0E0],"parents":[2147483647,0,0,1,1,2,2],"right_children":[2,4,6,-1,-1,-1,-1],"split_conditions":[8.259674E0,3E0,2.85E1,1.0568916E-3,-1.4203397E-3,-8.427129E-3,-3.990139E-4],"split_indices":[36,132,105,0,0,0,0],"split_type":[0,0,0,0,0,0,0],"sum_hessian":[1.6229949E4,1.4110036E4,2.1199126E3,1.0268796E4,3.8412407E3,6.075525E2,1.5123601E3],"tree_param":{"num_deleted":"0","num_feature":"136","num_nodes":"7","size_leaf_vector":"1"}},{"base_weights":[-4.870511E-3,-9.357884E-3,9.2540175E-2,-9.0853544E-4,2.3568538E-3,6.160389E-3,-1.9135734E-2],"categories":[],"categories_nodes":[],"categories_segments":[],"categories_sizes":[],"default_left":[0,1,0,0,0,0,0],"id":114,"left_children":[1,3,5,-1,-1,-1,-1],"loss_changes":[7.094332E0,7.726472E0,1.0653168E1,0E0,0E0,0E0,0E0],"parents":[2147483647,0,0,1,1,2,2],"right_children":[2,4,6,-1,-1,-1,-1],"split_conditions":[2E0,3.3357143E1,3.65E1,-9.0853544E-4,2.3568538E-3,6.160389E-3,-1.9135734E-2],"split_indices":[61,109,105,0,0,0,0],"split_type":[0,0,0,0,0,0,0],"sum_hessian":[1.6214882E4,1.5505134E4,7.097481E2,1.341576E4,2.0893745E3,6.702044E2,3.9543682E1],"tree_param":{"num_deleted":"0","num_feature":"136","num_nodes":"7","size_leaf_vector":"1"}},{"base_weights":[1.6045227E-3,1.68714E-2,-2.8452732E-2,4.442469E-4,8.591523E-3,-3.1984162E-3,1.3806421E-3],"categories":[],"categories_nodes":[],"categories_segments":[],"categories_sizes":[],"default_left":[0,0,0,0,0,0,0],"id":115,"left_children":[1,3,5,-1,-1,-1,-1],"loss_changes":[7.378897E0,1.31892E1,1.0794223E1,0E0,0E0,0E0,0E0],"parents":[2147483647,0,0,1,1,2,2],"right_children":[2,4,6,-1,-1,-1,-1],"split_conditions":[5E0,4.157991E0,6.5E0,4.442469E-4,8.591523E-3,-3.1984162E-3,1.3806421E-3],"split_indices":[49,48,49,0,0,0,0],"split_type":[0,0,0,0,0,0,0],"sum_hessian":[1.6069987E4,1.0658464E4,5.411523E3,1.0141087E4,5.173766E2,3.3124785E3,2.0990447E3],"tree_param":{"num_deleted":"0","num_feature":"136","num_nodes":"7","size_leaf_vector":"1"}},{"base_weights":[3.2526625E-3,4.541659E-2,-9.670476E-3,-7.2641443E-3,3.0665502E-3,6.68218E-5,-4.0244367E-3],"categories":[],"categories_nodes":[],"categories_segments":[],"categories_sizes":[],"default_left":[0,0,0,0,0,0,0],"id":116,"left_children":[1,3,5,-1,-1,-1,-1],"loss_changes":[8.828175E0,1.157942E1,9.667729E0,0E0,0E0,0E0,0E0],"parents":[2147483647,0,0,1,1,2,2],"right_children":[2,4,6,-1,-1,-1,-1],"split_conditions":[-3.435021E-1,-3.5785713E0,9.372057E-1,-7.2641443E-3,3.0665502E-3,6.68218E-5,-4.0244367E-3],"split_indices":[121,118,19,0,0,0,0],"split_type":[0,0,0,0,0,0,0],"sum_hessian":[1.6192717E4,3.7957778E3,1.2396938E4,2.892387E2,3.506539E3,1.073358E4,1.6633586E3],"tree_param":{"num_deleted":"0","num_feature":"136","num_nodes":"7","size_leaf_vector":"1"}},{"base_weights":[4.0853005E-3,-2.962065E-3,8.217755E-2,2.3511155E-4,-3.9278017E-3,1.2732141E-2,1.8011462E-3],"categories":[],"categories_nodes":[],"categories_segments":[],"categories_sizes":[],"default_left":[0,0,1,0,0,0,0],"id":117,"left_children":[1,3,5,-1,-1,-1,-1],"loss_changes":[8.909908E0,8.606947E0,1.0621266E1,0E0,0E0,0E0,0E0],"parents":[2147483647,0,0,1,1,2,2],"right_children":[2,4,6,-1,-1,-1,-1],"split_conditions":[1.918E2,3.45E1,-5.388365E-1,2.3511155E-4,-3.9278017E-3,1.2732141E-2,1.8011462E-3],"split_indices":[103,86,117,0,0,0,0],"split_type":[0,0,0,0,0,0,0],"sum_hessian":[1.6182477E4,1.4847397E4,1.3350798E3,1.3484885E4,1.3625121E3,2.7709128E2,1.0579885E3],"tree_param":{"num_deleted":"0","num_feature":"136","num_nodes":"7","size_leaf_vector":"1"}},{"base_weights":[4.620944E-3,-1.7438269E-3,7.467414E-2,1.8668784E-4,-5.1311357E-3,-6.2719486E-3,5.787037E-3],"categories":[],"categories_nodes":[],"categories_segments":[],"categories_sizes":[],"default_left":[0,0,0,0,0,0,0],"id":118,"left_children":[1,3,5,-1,-1,-1,-1],"loss_changes":[7.2371054E0,8.225846E0,1.118232E1,0E0,0E0,0E0,0E0],"parents":[2147483647,0,0,1,1,2,2],"right_children":[2,4,6,-1,-1,-1,-1],"split_conditions":[2.8333333E0,1.8529257E0,5.2704626E-1,1.8668784E-4,-5.1311357E-3,-6.2719486E-3,5.787037E-3],"split_indices":[41,42,72,0,0,0,0],"split_type":[0,0,0,0,0,0,0],"sum_hessian":[1.6224872E4,1.4877989E4,1.3468829E3,1.4116308E4,7.616811E2,2.2758978E2,1.1192931E3],"tree_param":{"num_deleted":"0","num_feature":"136","num_nodes":"7","size_leaf_vector":"1"}},{"base_weights":[2.5304565E-3,6.503877E-2,-3.7001388E-3,-1.1030452E-3,6.8492736E-3,2.3979598E-3,-7.592649E-4],"categories":[],"categories_nodes":[],"categories_segments":[],"categories_sizes":[],"default_left":[0,0,0,0,0,0,0],"id":119,"left_children":[1,3,5,-1,-1,-1,-1],"loss_changes":[6.3814707E0,9.321999E0,8.845233E0,0E0,0E0,0E0,0E0],"parents":[2147483647,0,0,1,1,2,2],"right_children":[2,4,6,-1,-1,-1,-1],"split_conditions":[-3.8E0,1.4491377E0,1.1005049E0,-1.1030452E-3,6.8492736E-3,2.3979598E-3,-7.592649E-4],"split_indices":[116,18,18,0,0,0,0],"split_type":[0,0,0,0,0,0,0],"sum_hessian":[1.6377175E4,1.4801733E3,1.4897001E4,6.71144E2,8.0902936E2,2.706682E3,1.2190319E4],"tree_param":{"num_deleted":"0","num_feature":"136","num_nodes":"7","size_leaf_vector":"1"}},{"base_weights":[-2.0970646E-3,-1.3689705E-2,3.9998E-2,-8.6655916E-4,1.1097022E-2,-3.470767E-3,4.0103327E-3],